2295 100
một 0.23126802 -0.24774866 -0.057350095 0.11746471 0.06386551 -0.045151744 -0.26709148 -0.16813445 -0.27993852 -0.11559926 0.16405971 -0.12790652 0.062645525 0.12307026 0.08288684 0.13272363 0.1863668 0.100185886 0.12878776 -0.26935565 0.0655752 -0.42513523 0.0005979609 0.05863924 0.17499372 0.071960516 0.09470433 -0.0794643 -0.21579391 0.022867732 0.007863555 -0.01641694 -0.0049411575 -0.41058102 0.28029653 0.0015660718 -0.0956904 0.07739187 -0.21061368 -0.21583588 0.04870732 -0.18690601 0.051234838 -0.097323984 0.009738105 0.20727967 0.12996897 0.14505444 -0.26057202 0.08713775 -0.08632671 -0.014788805 0.06847253 0.0475073 -0.050768543 0.062989995 -0.03454642 0.13118057 0.06647995 -0.31917372 0.17184481 0.027412409 -0.110983685 -0.018661497 -0.026552029 -0.26426017 -0.14774236 0.022957329 0.07142773 0.10820455 -0.050598696 0.0065112393 -0.22188415 -0.053570826 0.09928322 -0.029001353 0.08412394 -0.1230528 -0.049211856 0.052954987 0.24232592 -0.051112723 -0.112971336 0.14491959 -0.09941291 0.13164228 -0.31930527 -0.08576365 0.047100976 0.071281575 0.050790388 -0.102614194 0.050618254 0.019178534 0.111076824 0.12464092 -0.14888364 0.20435025 0.05235671 -0.14799188
đã 0.229073 -0.25246617 -0.06518626 0.1059261 0.06133164 -0.0505926 -0.2618605 -0.18120633 -0.28641805 -0.13109025 0.16143773 -0.12758504 0.056128845 0.12406267 0.09324002 0.1364937 0.1931646 0.08891152 0.14481981 -0.27350006 0.080873236 -0.42434943 0.0017220288 0.07000474 0.18252183 0.08149057 0.10213468 -0.083276294 -0.21676424 0.026394686 0.012096991 -0.014658392 0.006346917 -0.4114333 0.27230772 -0.007824247 -0.10574098 0.0871916 -0.20924285 -0.21953784 0.04636818 -0.1898363 0.048756864 -0.085919656 0.0068148784 0.20288542 0.13598412 0.14376266 -0.25507453 0.08357604 -0.08612675 -0.018332688 0.05671305 0.03935164 -0.043952107 0.063036054 -0.033549573 0.1365422 0.061528128 -0.33207136 0.172503 0.03218345 -0.112232074 -0.019619847 -0.03761278 -0.26760265 -0.14777498 0.03730357 0.07008875 0.11613021 -0.049771912 0.006259888 -0.2210993 -0.06627242 0.10994058 -0.025706582 0.085337706 -0.12203989 -0.05834331 0.051643644 0.2389012 -0.06482626 -0.12141059 0.15438287 -0.11409581 0.124422 -0.3366186 -0.0897176 0.044971608 0.07091474 0.041419826 -0.09899895 0.054793946 0.017563473 0.1134217 0.11778424 -0.15751062 0.20475906 0.04083907 -0.13688962
người 0.22271718 -0.2434393 -0.053570624 0.11179972 0.064026006 -0.04332701 -0.26458782 -0.17578083 -0.29792276 -0.11947362 0.16187145 -0.12886849 0.051542293 0.12012423 0.085010186 0.13356042 0.18520154 0.089814305 0.13699955 -0.2751691 0.08532485 -0.426175 -0.0003674737 0.060197704 0.18357666 0.07489776 0.101355046 -0.07566514 -0.21087305 0.026162464 0.009210692 -0.0154137835 0.0030336962 -0.4036005 0.27665684 -0.0051788487 -0.09784528 0.08584593 -0.20779184 -0.21198556 0.04309368 -0.18989995 0.04928317 -0.0927047 0.021928512 0.2049228 0.13512266 0.14026262 -0.26232406 0.0917844 -0.08693066 -0.019947525 0.058868155 0.032313827 -0.04322618 0.05462273 -0.030645613 0.124305956 0.07517166 -0.33506697 0.175689 0.037329197 -0.109219216 -0.014726156 -0.02760996 -0.2774506 -0.1589831 0.033361826 0.080936216 0.12138184 -0.04759584 0.00036877376 -0.23119129 -0.07211904 0.10019509 -0.03444396 0.07275771 -0.120056786 -0.066104755 0.056635875 0.24290623 -0.06547141 -0.12863551 0.1441778 -0.11346809 0.12997848 -0.3368922 -0.098500066 0.05796107 0.07831566 0.047058746 -0.10215742 0.059208658 0.025785318 0.11934723 0.11404006 -0.15487505 0.20285825 0.040259074 -0.1413447
nàng 0.22888312 -0.2488541 -0.05491682 0.10361306 0.07568462 -0.051816802 -0.2659119 -0.17523433 -0.29009026 -0.11519534 0.15908265 -0.13472237 0.050595492 0.11381944 0.089714296 0.12862736 0.18312068 0.079061575 0.14940073 -0.26173383 0.07700758 -0.41750306 -0.0052620005 0.068512686 0.18353376 0.07640829 0.09078528 -0.08317028 -0.21300773 0.026339715 0.013825173 -0.0111325085 -0.0007757354 -0.40636918 0.27874672 -0.009569575 -0.09940266 0.07408878 -0.2060201 -0.21370319 0.05087631 -0.183647 0.057063505 -0.08479029 0.0017317947 0.20619725 0.13385454 0.14383969 -0.2666741 0.0923552 -0.08715373 -0.011068664 0.06527698 0.036032453 -0.03996663 0.06764779 -0.03284789 0.12820409 0.07023683 -0.3318095 0.16966583 0.040733807 -0.121313915 -0.022540217 -0.035683442 -0.2762913 -0.13956362 0.034544323 0.06604441 0.11884978 -0.03888862 -0.004016489 -0.22658265 -0.057126757 0.1056845 -0.026402658 0.096554376 -0.12447525 -0.057981625 0.063000925 0.23593023 -0.059935123 -0.10922835 0.14811708 -0.11588067 0.12699345 -0.33330324 -0.078027256 0.05307039 0.07741418 0.0482389 -0.09912745 0.06426684 0.022744743 0.11963185 0.11546082 -0.15166143 0.20110759 0.042499997 -0.14009786
lòng 0.23171578 -0.25135565 -0.060149703 0.11119348 0.06537236 -0.04846898 -0.26166973 -0.18176022 -0.2910797 -0.120675884 0.15961514 -0.122148305 0.050390303 0.1291027 0.0939931 0.12993969 0.18594387 0.09010356 0.14851134 -0.26911658 0.0778457 -0.43959692 -0.0055657336 0.06751104 0.17334206 0.0783864 0.09322263 -0.07934264 -0.21359709 0.028059674 0.014587195 -0.0010913415 -0.00079634483 -0.4136956 0.27067935 -0.012543633 -0.0961626 0.07789177 -0.20602013 -0.21006559 0.05088643 -0.18209687 0.05454304 -0.08968883 0.02042344 0.20876342 0.13221584 0.14073317 -0.25408334 0.09118772 -0.083521515 -0.0074724583 0.06996205 0.03668493 -0.04248582 0.06270366 -0.037907038 0.13680916 0.065956764 -0.3405655 0.16733037 0.031167809 -0.11124181 -0.020174155 -0.04044072 -0.28514388 -0.15484597 0.040126145 0.07913495 0.121341705 -0.03947587 -0.0017619254 -0.23144697 -0.0695792 0.09909519 -0.029299868 0.08648663 -0.12779443 -0.05667383 0.065824084 0.23957069 -0.06841995 -0.11659946 0.14765683 -0.106215194 0.1327588 -0.32680252 -0.08449731 0.06311304 0.082358055 0.04719932 -0.10305343 0.06256195 0.018711606 0.1217334 0.11868637 -0.16639258 0.19414233 0.043067187 -0.1333255
lời 0.22491014 -0.25140157 -0.058902122 0.113818936 0.060047723 -0.050806627 -0.25764978 -0.17771973 -0.28722352 -0.12806033 0.15419023 -0.13091801 0.05442481 0.11976104 0.090219535 0.13695884 0.19299603 0.08864738 0.14604011 -0.27234688 0.066370435 -0.433039 -0.0016696136 0.06629863 0.18477976 0.07396103 0.09301489 -0.08911332 -0.21437958 0.020852702 0.016623542 -0.017594453 -0.0011038736 -0.4050224 0.26967943 -0.014283704 -0.09917419 0.079515204 -0.20201336 -0.21570173 0.044421714 -0.1957876 0.061136413 -0.08606976 0.0030128504 0.20779555 0.12787768 0.13471356 -0.26031834 0.0867472 -0.09202083 -0.02278003 0.063647255 0.042074498 -0.04162787 0.07058781 -0.039353978 0.13449575 0.05977582 -0.33490384 0.16869771 0.031029854 -0.12213793 -0.024443243 -0.035892792 -0.26626536 -0.14517264 0.039640788 0.071822286 0.106389165 -0.050794877 -0.0027093466 -0.23261625 -0.063450195 0.110442564 -0.02667179 0.09016147 -0.124109544 -0.055072397 0.05084019 0.25102043 -0.06389858 -0.114406236 0.14818537 -0.1020315 0.13401057 -0.3328438 -0.0773177 0.05420221 0.074281715 0.039409228 -0.112653755 0.046557307 0.026295051 0.119951196 0.11040444 -0.14640406 0.19693732 0.05477823 -0.1330649
cho 0.23391764 -0.2553338 -0.05744327 0.106048845 0.06556533 -0.0459284 -0.263693 -0.18065256 -0.29538193 -0.13179792 0.17043073 -0.12523338 0.05299158 0.1300805 0.10149432 0.14169055 0.19817548 0.08865376 0.14470446 -0.26203355 0.07983284 -0.42511162 -0.0032850455 0.05614351 0.1836691 0.08292807 0.10280114 -0.07163063 -0.21940199 0.024909742 0.0046105203 -0.009209202 0.00058066036 -0.41648808 0.26918808 -0.0026829923 -0.09685267 0.078717254 -0.20930406 -0.21924226 0.041826002 -0.19666025 0.049500376 -0.078374684 0.023836004 0.2111691 0.13554288 0.14596397 -0.26732928 0.09025662 -0.088072345 -0.016238203 0.06215846 0.027353616 -0.03284298 0.056624357 -0.021369535 0.12507063 0.06699393 -0.32902318 0.17238964 0.036549486 -0.11557229 -0.0074953525 -0.040487304 -0.27925044 -0.15085857 0.04034992 0.07214375 0.12070982 -0.04047247 0.002833238 -0.23042342 -0.06751021 0.1075881 -0.035548963 0.07795009 -0.12334155 -0.065919556 0.05382697 0.2462378 -0.07397673 -0.12920131 0.15517776 -0.11734256 0.13549195 -0.33908892 -0.08823897 0.05767746 0.07750361 0.050045896 -0.101682454 0.05761189 0.017735668 0.112909846 0.11755455 -0.16386308 0.20728625 0.044167068 -0.1397396
là 0.22171122 -0.24409698 -0.061345074 0.10979161 0.061653133 -0.03746317 -0.27139407 -0.1759708 -0.29882392 -0.13010438 0.1640481 -0.12573414 0.06889688 0.119651034 0.09229294 0.12800577 0.1906265 0.087279946 0.13411885 -0.26677427 0.0894298 -0.4223037 0.007945269 0.053667244 0.18131635 0.07723733 0.10341178 -0.07849999 -0.22699809 0.016853452 0.00685363 -0.0036375101 -0.010940268 -0.41061062 0.28123376 -0.007348499 -0.09187541 0.084966145 -0.20633358 -0.21906106 0.046545304 -0.19019179 0.06386957 -0.07759076 0.020129254 0.20599289 0.13990377 0.14423084 -0.26330137 0.08471773 -0.08331206 -0.011594186 0.069063485 0.03736763 -0.048941243 0.057434183 -0.036055546 0.12966777 0.06994053 -0.33905587 0.1763447 0.034586117 -0.10415215 -0.017083365 -0.02983349 -0.27420166 -0.15032797 0.03670351 0.08308554 0.118035704 -0.05039387 0.012966487 -0.2338496 -0.0631506 0.10257615 -0.02905393 0.06756099 -0.11830844 -0.06475448 0.05645345 0.25510436 -0.07042695 -0.13084362 0.15551035 -0.10730314 0.12939608 -0.3423692 -0.09287454 0.052651353 0.08112877 0.037009694 -0.0956451 0.06399571 0.022102453 0.1131748 0.1170368 -0.16183452 0.20957525 0.04426921 -0.15116751
cũng 0.22423288 -0.25028646 -0.061809484 0.10368698 0.05804086 -0.04727169 -0.26612225 -0.17417023 -0.3000973 -0.12361228 0.16821103 -0.114898436 0.059200257 0.115878865 0.089973584 0.14062332 0.18612306 0.08502752 0.14386573 -0.261885 0.08225218 -0.43059424 -0.0016771295 0.06001645 0.18533266 0.079989955 0.093725644 -0.082778804 -0.2191824 0.024262922 0.016811816 -0.007713534 0.005489013 -0.40968522 0.27087504 -0.0007789993 -0.092005536 0.07937753 -0.2040725 -0.21375382 0.03985489 -0.19136107 0.05328746 -0.08412054 0.021692596 0.20170781 0.13952042 0.14203592 -0.2647194 0.09124251 -0.08461203 -0.019829078 0.062343873 0.027398413 -0.03636923 0.058672782 -0.026112158 0.13844062 0.07084803 -0.3373613 0.16395852 0.039473917 -0.11802345 -0.006531849 -0.027964178 -0.27260414 -0.14258872 0.034497432 0.071435 0.11309908 -0.047103364 0.0031602967 -0.23634797 -0.059674717 0.10761868 -0.02944556 0.08607279 -0.12649132 -0.060662515 0.05580492 0.2523362 -0.061174434 -0.12859589 0.1546523 -0.10380367 0.13304883 -0.33400354 -0.0916237 0.05647407 0.073760144 0.034822576 -0.102533594 0.06283435 0.017659547 0.1182881 0.115928955 -0.16354452 0.20611173 0.05262251 -0.14598873
có 0.22923711 -0.25317356 -0.06121744 0.10685807 0.06055328 -0.04000691 -0.2696503 -0.177916 -0.30416232 -0.12411497 0.16755104 -0.1164764 0.05089165 0.12348215 0.096847236 0.13345537 0.1880592 0.092906535 0.14582385 -0.27760848 0.08740371 -0.4262845 0.009787596 0.06353295 0.18621653 0.07530297 0.09637997 -0.07830211 -0.22221215 0.018928224 0.010103693 -0.016049746 -0.00033827595 -0.4147993 0.27876046 -0.0020664122 -0.09642561 0.08935562 -0.20058045 -0.21612172 0.048626166 -0.19084328 0.047983 -0.08822231 0.017979026 0.2062487 0.13685438 0.14987215 -0.25448912 0.082335085 -0.08049821 -0.008121819 0.06151264 0.03650349 -0.036878973 0.057595935 -0.02097967 0.13471918 0.06578254 -0.33305123 0.16611496 0.033021882 -0.1106019 -0.015109755 -0.03823371 -0.2751002 -0.15327893 0.039185327 0.072348565 0.11320304 -0.042004928 0.0085222805 -0.23134471 -0.065962255 0.10949262 -0.027605563 0.080018856 -0.1290408 -0.06778011 0.047104772 0.25001702 -0.0655383 -0.12875691 0.15615274 -0.11797358 0.13073683 -0.33769938 -0.09603808 0.058400534 0.0707092 0.049013894 -0.09889669 0.059477124 0.016897643 0.119457304 0.115097046 -0.16087317 0.20358913 0.049183153 -0.1385401
rằng 0.22968799 -0.2512401 -0.053729925 0.10787864 0.061954454 -0.04229439 -0.26339313 -0.1790857 -0.2875972 -0.11452783 0.15287851 -0.1365074 0.057445522 0.12590897 0.08517373 0.13612697 0.18581717 0.08636824 0.14235567 -0.26947004 0.08853366 -0.42049578 -0.0040056556 0.06221275 0.17391196 0.070094995 0.09066425 -0.089374356 -0.2057943 0.030248951 0.023532324 -0.017515952 0.0051262463 -0.40510115 0.275812 -0.0028225954 -0.08850188 0.07756334 -0.20106053 -0.21667385 0.048829548 -0.18148082 0.048362948 -0.089421146 0.010031747 0.20999695 0.13760747 0.14173512 -0.2554076 0.08215099 -0.08514578 -0.015109917 0.066832796 0.031283487 -0.04252224 0.072234444 -0.039015 0.1268776 0.07337537 -0.32663587 0.16698585 0.028879683 -0.104734115 -0.011536841 -0.04006674 -0.2694274 -0.14773378 0.031901993 0.07593712 0.109716505 -0.05037947 0.0073629725 -0.2223982 -0.06654319 0.11368197 -0.018415462 0.07993 -0.11697617 -0.062154222 0.05913067 0.24601668 -0.06714871 -0.112886906 0.15495233 -0.111904606 0.12803614 -0.3386752 -0.08579355 0.053672522 0.07843192 0.042955555 -0.092733145 0.05956661 0.018354546 0.117820196 0.12006957 -0.1495675 0.2028368 0.04139857 -0.13980284
ra 0.2281612 -0.2584893 -0.06216929 0.115515225 0.060180604 -0.05274825 -0.25868168 -0.17972459 -0.2906729 -0.12843509 0.15884799 -0.13581668 0.055611067 0.12108593 0.09565272 0.13873726 0.19818522 0.09800626 0.13780366 -0.27438563 0.07165027 -0.41651887 -0.0067367614 0.06905893 0.1866042 0.08398851 0.10563659 -0.08207729 -0.2135676 0.01821061 0.01462973 -0.01674056 0.0038040471 -0.4100275 0.27841657 -0.0023311574 -0.10662202 0.080468036 -0.20599133 -0.21803142 0.046819694 -0.19061369 0.050433706 -0.08721645 0.00255684 0.20674987 0.13452639 0.14958964 -0.26913893 0.099616885 -0.091323614 -0.011589806 0.05694004 0.03414276 -0.039594542 0.0576441 -0.021514956 0.13334033 0.07503443 -0.3403494 0.17591065 0.041225497 -0.115658276 -0.026231566 -0.035145655 -0.27390036 -0.14263168 0.03423438 0.07326881 0.11069294 -0.044435672 0.004904028 -0.22828315 -0.064361855 0.10486677 -0.029308867 0.084458105 -0.11521743 -0.060637467 0.0584713 0.23555757 -0.055945013 -0.124491856 0.15283887 -0.11592247 0.13471626 -0.3360646 -0.08479085 0.04842478 0.08014571 0.051893283 -0.10311926 0.06293201 0.022578498 0.118656665 0.116087645 -0.1529605 0.20343809 0.051538948 -0.14925025
lại 0.22675093 -0.251184 -0.06004958 0.110643364 0.06454511 -0.038475234 -0.26126635 -0.1799308 -0.2970566 -0.1275086 0.15560846 -0.120183066 0.0619341 0.13417533 0.09280614 0.13491185 0.18975371 0.081016414 0.14335956 -0.26393536 0.07046986 -0.41783354 0.010751207 0.06825191 0.17635466 0.07484769 0.095747314 -0.074589826 -0.20698708 0.015354756 0.019935196 -0.009527017 -0.0023463443 -0.41738662 0.2755249 -0.00839029 -0.09395087 0.07153761 -0.21535188 -0.20572436 0.04932783 -0.19111027 0.045592483 -0.08992469 0.019648056 0.20663159 0.13060187 0.14351363 -0.25941655 0.09025552 -0.08719772 -0.018808238 0.05899455 0.041116472 -0.039098237 0.06744296 -0.032924015 0.12610957 0.06350494 -0.32900262 0.1672752 0.02640154 -0.110997066 -0.017911835 -0.025475774 -0.2737484 -0.1483014 0.037413415 0.07457466 0.11849411 -0.046188135 0.010000834 -0.22810233 -0.06709193 0.10789887 -0.027534125 0.08685401 -0.11928417 -0.06088431 0.05575956 0.2389816 -0.06855591 -0.117760405 0.15557405 -0.11151332 0.13105974 -0.3318577 -0.094142795 0.061822448 0.08562069 0.043964982 -0.09922243 0.056479476 0.024843024 0.11749596 0.10630023 -0.15860166 0.18998131 0.045055293 -0.14086357
hoa 0.2257312 -0.25587994 -0.05666103 0.116388544 0.055571087 -0.05404218 -0.25269216 -0.17325017 -0.28733838 -0.11910959 0.16436526 -0.12396168 0.05858532 0.12505127 0.08937344 0.1326482 0.19076008 0.09827846 0.14245789 -0.2749166 0.072665356 -0.4245964 0.00021485581 0.07307284 0.18341005 0.08449397 0.093167655 -0.07018534 -0.2134819 0.024848908 0.012522723 -0.012713881 -0.00652938 -0.40890104 0.27658352 -0.0059529846 -0.10491526 0.091343015 -0.21408147 -0.20475955 0.048802614 -0.18397775 0.055093285 -0.08470455 0.009890105 0.19220221 0.13386913 0.14106144 -0.25576884 0.08619468 -0.09437244 -0.010373771 0.053583007 0.046228494 -0.05564756 0.06120757 -0.039005954 0.13777456 0.07348777 -0.32694423 0.16147828 0.022293895 -0.12044523 -0.017517027 -0.026985014 -0.25774226 -0.14925784 0.020326158 0.06736521 0.11477877 -0.05638754 0.0017356 -0.23005953 -0.06368806 0.10831202 -0.019315954 0.08472009 -0.12470954 -0.05680401 0.050608624 0.23545168 -0.05362166 -0.12009482 0.14843951 -0.12359143 0.123804435 -0.3351667 -0.08848575 0.055725105 0.07857622 0.053933848 -0.10256886 0.055304997 0.030231109 0.11536145 0.12554984 -0.15198237 0.20280671 0.036210172 -0.14326087
tình 0.23338501 -0.2576642 -0.05929368 0.10792565 0.06525719 -0.04308843 -0.26671284 -0.1751388 -0.300299 -0.12561971 0.15925595 -0.12512545 0.055633634 0.12057634 0.08391844 0.13469 0.18589167 0.084198035 0.14629254 -0.26879376 0.075062 -0.43274906 0.0010426348 0.057369817 0.19072488 0.077911325 0.10040708 -0.07935248 -0.21241578 0.023505978 0.018494545 -0.0014219899 -0.009413221 -0.4184295 0.2693886 -0.009392386 -0.08939436 0.09038291 -0.20663866 -0.22062567 0.053188216 -0.19551416 0.05692105 -0.09050943 0.010455038 0.2007487 0.13388419 0.14302412 -0.26076484 0.08648124 -0.087266006 -0.013371015 0.067843065 0.048905645 -0.047678154 0.0689151 -0.03232873 0.13785687 0.059433624 -0.3363667 0.16889785 0.035967734 -0.11300849 -0.019297969 -0.029362125 -0.27600732 -0.14256513 0.034993846 0.069650576 0.12177652 -0.043742385 0.004367137 -0.23212847 -0.065117866 0.10371658 -0.029395524 0.09253816 -0.12036237 -0.057437804 0.061856136 0.2521619 -0.06231619 -0.11830038 0.14454983 -0.10895748 0.1285591 -0.33540952 -0.09344875 0.05100789 0.07688616 0.04557954 -0.107159026 0.054705486 0.014031502 0.11307147 0.11729872 -0.15389496 0.20543015 0.044786163 -0.13452041
mới 0.2197028 -0.254778 -0.054356184 0.09918291 0.06779711 -0.047481004 -0.2644521 -0.16944994 -0.29898614 -0.12092294 0.1513242 -0.12017391 0.06203321 0.12493578 0.082588986 0.14117238 0.1908233 0.08977202 0.15105247 -0.2641178 0.0803678 -0.4189609 -0.0038559777 0.0671819 0.18572648 0.088439986 0.10308556 -0.09208516 -0.2179883 0.027548604 0.017336743 -0.008399298 0.0025108512 -0.41264543 0.27135605 -0.00088287506 -0.09781404 0.08053633 -0.21436998 -0.22133596 0.04968445 -0.18678935 0.056143768 -0.080807686 0.0029462713 0.20294534 0.13920312 0.13654746 -0.26526433 0.09327793 -0.089888684 -0.010754403 0.058053926 0.03882618 -0.034544934 0.06556681 -0.038203973 0.13621664 0.06928193 -0.33129784 0.16825739 0.038090717 -0.116531424 -0.021346169 -0.039621904 -0.27910542 -0.14354046 0.037022658 0.06962417 0.115444876 -0.046632186 -0.0023172183 -0.22867222 -0.05267691 0.105239525 -0.025012372 0.083353356 -0.118835345 -0.065306515 0.06340069 0.23545554 -0.06068055 -0.11160396 0.1617756 -0.10947195 0.13123558 -0.339082 -0.088272125 0.059590578 0.08125955 0.047982395 -0.10353871 0.05867645 0.026470631 0.11813389 0.112056285 -0.15813611 0.20050979 0.0464342 -0.13723277
còn 0.23551117 -0.25525832 -0.06549641 0.11083342 0.072083354 -0.046399105 -0.26589948 -0.1804982 -0.29949844 -0.11810566 0.16609204 -0.1266903 0.057648625 0.12690686 0.09365717 0.13500474 0.20135821 0.08778109 0.14844573 -0.2655216 0.08252128 -0.43022442 0.008259541 0.06600011 0.18474177 0.070727885 0.09377721 -0.07034127 -0.2199794 0.026021838 0.015306899 -0.0084748175 0.0017117306 -0.41924152 0.2713196 0.0022150823 -0.0935355 0.07554738 -0.20163521 -0.22156137 0.044773463 -0.19486156 0.061877195 -0.08035928 0.017411785 0.20024195 0.13793184 0.15338695 -0.26193416 0.08985517 -0.09167374 -0.019997813 0.06753122 0.0345624 -0.040830065 0.060509656 -0.024350384 0.13423218 0.063629895 -0.3414509 0.1707851 0.027255097 -0.110636055 -0.013578449 -0.03564525 -0.27997538 -0.15171187 0.03613338 0.0730983 0.11912496 -0.043521974 0.0015929338 -0.2387056 -0.073959015 0.10381998 -0.029338084 0.083401315 -0.12493836 -0.06528787 0.059801348 0.2537806 -0.061605666 -0.12833844 0.15530454 -0.11546805 0.13913673 -0.3450774 -0.09348898 0.06149478 0.074306875 0.04002321 -0.106911376 0.05871831 0.025221046 0.11264417 0.12597491 -0.1593179 0.21128866 0.05107561 -0.1420803
đâu 0.22139959 -0.24255009 -0.057757158 0.11470719 0.06418636 -0.039149888 -0.27210444 -0.1757694 -0.30015492 -0.12829506 0.16588025 -0.12078537 0.06147144 0.12083653 0.09249247 0.12737451 0.18842104 0.08265753 0.14827442 -0.278155 0.0863897 -0.4053614 0.010028201 0.055857405 0.17314395 0.07176957 0.09379845 -0.07364677 -0.22638491 0.022396183 0.018095462 -0.011996607 0.00073471863 -0.40384966 0.27638873 0.003175603 -0.09613632 0.07595786 -0.21296625 -0.20970571 0.042707283 -0.19276114 0.060336307 -0.089449435 0.025304582 0.20501171 0.14037429 0.1421941 -0.25721985 0.08914426 -0.08401276 -0.011847125 0.05712938 0.028383283 -0.041969016 0.052743927 -0.01534024 0.13092178 0.06496274 -0.33188763 0.17824098 0.03912098 -0.10673651 -0.013805085 -0.030223977 -0.28092852 -0.1546015 0.033104498 0.07999636 0.12698735 -0.037853878 -0.001572411 -0.22979051 -0.066575706 0.09442484 -0.03210265 0.07712177 -0.12458522 -0.0717656 0.052054327 0.24897838 -0.07601418 -0.125959 0.159488 -0.11911771 0.13478227 -0.33688053 -0.09789496 0.055270065 0.069251694 0.035307046 -0.09121681 0.0634267 0.025571661 0.10987369 0.117983595 -0.15015456 0.19814964 0.03455606 -0.14748459
ai 0.23430347 -0.25874233 -0.06155147 0.10514472 0.064737946 -0.03674203 -0.2683668 -0.17609581 -0.30360833 -0.13099025 0.17189237 -0.11998641 0.051235616 0.13372643 0.09560821 0.13117777 0.1884834 0.09125968 0.1467317 -0.271474 0.089759074 -0.4235789 0.011943908 0.060114298 0.17990918 0.083468914 0.0998357 -0.07456645 -0.2175894 0.019472484 0.018113052 -0.012205619 -0.002634769 -0.41616464 0.2668623 -0.004036193 -0.09480149 0.08139038 -0.20822452 -0.21710007 0.039644767 -0.18600324 0.054836247 -0.08350806 0.013849622 0.21763574 0.13806996 0.14769974 -0.25592124 0.08563336 -0.08226296 -0.01268068 0.060913566 0.03790382 -0.03840868 0.054278277 -0.026380513 0.13200654 0.07116879 -0.34232345 0.16957667 0.032622576 -0.11627844 -0.012256568 -0.038347594 -0.2854974 -0.15343812 0.036283776 0.07727157 0.12562731 -0.03481892 0.0036066985 -0.23614708 -0.06675696 0.10587271 -0.03174696 0.08066804 -0.1271587 -0.071521394 0.05690027 0.24469887 -0.07674738 -0.12003676 0.15756343 -0.10830759 0.13443804 -0.33349705 -0.097964905 0.06321628 0.07200246 0.04072321 -0.09991897 0.069090426 0.0124459285 0.12040311 0.10823425 -0.16327418 0.20079987 0.03563405 -0.14683396
chẳng 0.22836927 -0.25208274 -0.06173614 0.107623324 0.060854375 -0.045412194 -0.26206592 -0.18168202 -0.30321938 -0.1318868 0.16520153 -0.12217756 0.051208615 0.12890096 0.08802324 0.1342151 0.19454318 0.08547231 0.14032076 -0.2752958 0.08192521 -0.42884672 0.0053840154 0.060540106 0.17522186 0.07345705 0.1004416 -0.081142336 -0.22209552 0.015563669 0.01865923 -0.005170156 -0.0047350773 -0.4124631 0.2747054 -0.004218492 -0.10078229 0.08014727 -0.2031516 -0.21853213 0.05072505 -0.19162123 0.05906583 -0.08812255 0.021312734 0.21074796 0.134153 0.1470148 -0.2595513 0.08858381 -0.09059403 -0.019711524 0.054401048 0.036845498 -0.041381598 0.06681829 -0.022563452 0.1398029 0.069311365 -0.3432766 0.1640314 0.035356052 -0.10900663 -0.010349711 -0.03433974 -0.27336103 -0.15680926 0.042023174 0.08240075 0.120726176 -0.04709305 0.008944657 -0.23943241 -0.06761505 0.1098537 -0.025543693 0.08256163 -0.12037578 -0.07129102 0.05704792 0.24969476 -0.07056543 -0.12274732 0.14979966 -0.116714686 0.13940531 -0.338215 -0.08739092 0.062105004 0.08218774 0.044979583 -0.096285366 0.061452057 0.024770208 0.11098945 0.11555562 -0.16131958 0.20852816 0.045470458 -0.14377466
mà 0.22719532 -0.25297353 -0.06738724 0.11785223 0.06614355 -0.042037807 -0.2794991 -0.18641983 -0.30421188 -0.13264062 0.17003262 -0.12334779 0.05940458 0.12578374 0.09837394 0.14086138 0.20182942 0.09227163 0.15097299 -0.28036594 0.087948345 -0.43246362 0.008652151 0.06398941 0.18516068 0.0716119 0.10295806 -0.08596045 -0.2274339 0.024621172 0.018430768 -0.00035739242 0.0020738938 -0.42136893 0.27839127 -0.00026081683 -0.0902766 0.07412014 -0.2035458 -0.21474995 0.0390175 -0.18816125 0.046791073 -0.08907752 0.01944325 0.20553419 0.13549739 0.14975442 -0.25696597 0.08647433 -0.08845598 -0.019861719 0.056746606 0.033034317 -0.044189807 0.053295065 -0.025737697 0.1325688 0.06550822 -0.33588967 0.17021795 0.039452005 -0.12071458 -0.005322929 -0.03551483 -0.28205734 -0.15324314 0.04124804 0.081967555 0.12306969 -0.039566 0.0019564696 -0.2377928 -0.061579295 0.10192975 -0.025408989 0.08294595 -0.11797004 -0.06548533 0.05814348 0.2512794 -0.06864858 -0.13748747 0.16192687 -0.11510384 0.13605936 -0.34176096 -0.10092867 0.0642949 0.080954514 0.03730798 -0.09611595 0.072179876 0.016654972 0.11151182 0.11691392 -0.1600134 0.19663982 0.03943279 -0.13948978
thì 0.22940886 -0.24795596 -0.07269733 0.10532644 0.06716936 -0.03330519 -0.26329637 -0.18776672 -0.31027904 -0.12502548 0.15873873 -0.12539458 0.05846937 0.120882295 0.09494063 0.14844406 0.20145981 0.08414411 0.14980477 -0.2640336 0.09820736 -0.43990391 -0.0055619143 0.053216185 0.1767929 0.062449798 0.09170482 -0.08824457 -0.22059089 0.034084678 0.012691812 -0.009115512 0.015678687 -0.41296902 0.26775008 -0.0038578983 -0.08748173 0.07142766 -0.19537589 -0.21883152 0.045096155 -0.19467935 0.06018888 -0.084486954 0.032444376 0.2054381 0.14805989 0.15001583 -0.2631573 0.09073463 -0.07660319 -0.023287741 0.06282644 0.03554459 -0.029895201 0.07110111 -0.022157824 0.14035277 0.06620184 -0.35582143 0.16612947 0.030438267 -0.109700166 -0.007972159 -0.037719797 -0.29686147 -0.14470643 0.051358577 0.08316397 0.10750596 -0.042946443 -0.0064944625 -0.24532758 -0.062281396 0.11116094 -0.025025861 0.08102379 -0.1170077 -0.06662407 0.07515681 0.2612227 -0.068621755 -0.12922932 0.15758961 -0.11416045 0.13824314 -0.35496873 -0.10402385 0.06241934 0.07198897 0.03472188 -0.09368324 0.07057966 0.017498296 0.12265789 0.11556758 -0.16453527 0.20433159 0.055860855 -0.1579994
mình 0.23029453 -0.24586566 -0.051386055 0.104477204 0.073908575 -0.038134195 -0.26865312 -0.1738863 -0.30664134 -0.11556128 0.15707128 -0.13593954 0.061913244 0.13203841 0.092359655 0.13281652 0.19392532 0.100875236 0.14131176 -0.26963243 0.08222473 -0.42673418 0.0018417503 0.06257774 0.16926447 0.06645259 0.09281256 -0.09069202 -0.21311668 0.026118256 0.006389952 -0.015199918 0.0014536368 -0.41754758 0.28068948 0.006590987 -0.096301295 0.073342696 -0.2182396 -0.21761796 0.043458216 -0.18432243 0.055929083 -0.09696001 0.010896767 0.20657568 0.1443861 0.14577125 -0.2624895 0.09457262 -0.09111056 -0.022284504 0.05987626 0.042914953 -0.042987283 0.07149821 -0.030137738 0.13209923 0.06081149 -0.3369578 0.1673936 0.0420398 -0.117667675 -0.009463766 -0.032964796 -0.27700397 -0.14483584 0.027275654 0.07853216 0.11593635 -0.044011135 -0.0043580243 -0.23409316 -0.06848812 0.11118064 -0.024707621 0.096353866 -0.12398543 -0.050881907 0.069082305 0.24580552 -0.071794115 -0.12906942 0.14756331 -0.10820383 0.14263786 -0.33445948 -0.097981945 0.068081446 0.08232973 0.044542383 -0.10314232 0.066974044 0.011990849 0.11718938 0.112388834 -0.16125292 0.19758351 0.0439263 -0.14824161
biết 0.22211002 -0.24556947 -0.06192507 0.11739781 0.06772533 -0.03886784 -0.27535906 -0.18227474 -0.30379474 -0.12507132 0.1746081 -0.11737536 0.060712922 0.12509115 0.08711786 0.13640964 0.19371553 0.08783092 0.14839052 -0.26646253 0.08409646 -0.42124388 0.008021922 0.05045396 0.17883094 0.0743531 0.1020451 -0.090987474 -0.22762422 0.008180999 0.012071889 0.00092866167 -0.0067695277 -0.4066001 0.27632242 -0.0058158534 -0.09389837 0.08168464 -0.21709594 -0.22527634 0.0413021 -0.18875916 0.053989865 -0.08907888 0.019127127 0.2072743 0.14439626 0.14230953 -0.26791605 0.08808318 -0.09497278 -0.020639103 0.06373033 0.029926294 -0.036177177 0.05357724 -0.015630579 0.13813959 0.06792592 -0.3443875 0.17841384 0.035835512 -0.109444134 -0.016805 -0.04135608 -0.274145 -0.1572418 0.037441064 0.083312064 0.12419963 -0.035536025 0.012081552 -0.24257076 -0.0715991 0.096751556 -0.038272772 0.07227603 -0.13323721 -0.07587118 0.052993268 0.25748792 -0.0714095 -0.13418311 0.15709165 -0.11559023 0.13903767 -0.3386227 -0.100495376 0.049446236 0.06909556 0.033269387 -0.094705395 0.062434 0.02402412 0.10501797 0.117364705 -0.15540183 0.21162556 0.037832897 -0.15346256
này 0.23030315 -0.25106224 -0.06376821 0.10745726 0.071643755 -0.048364755 -0.26161137 -0.19327246 -0.30970058 -0.13131039 0.17825873 -0.12228925 0.050736364 0.12834622 0.09122459 0.14876945 0.1975723 0.079985775 0.15646969 -0.2719264 0.1011 -0.44023943 0.01360897 0.04552548 0.17850497 0.0661739 0.103153996 -0.086998716 -0.23224913 0.030943623 0.010037276 -0.0011052057 0.0007601795 -0.41717207 0.27798527 -0.015335525 -0.09719545 0.06599295 -0.20604292 -0.22221106 0.033073433 -0.20216207 0.04922412 -0.074532755 0.026061842 0.2172393 0.13789636 0.15457846 -0.25981387 0.09060189 -0.08762076 -0.020132886 0.06705306 0.016983803 -0.028382165 0.06348854 -0.014507888 0.124741055 0.058862153 -0.3553583 0.17187203 0.031805675 -0.11665642 0.00024829168 -0.03810569 -0.2878781 -0.15846883 0.04725202 0.08160807 0.1147054 -0.036437128 0.013401794 -0.23779292 -0.06367021 0.10920511 -0.031462874 0.072810635 -0.12380029 -0.06899481 0.071074754 0.25043893 -0.069186874 -0.13708255 0.16400929 -0.10834703 0.14523567 -0.35639685 -0.10018421 0.065143526 0.07765234 0.03352141 -0.09657995 0.07003257 0.018254442 0.115945034 0.11311722 -0.16519944 0.19841695 0.040760107 -0.15549982
trong 0.22561687 -0.2518519 -0.054201238 0.09805759 0.053805213 -0.04739012 -0.25770038 -0.16859263 -0.2895376 -0.117067546 0.16195725 -0.12360808 0.051194035 0.12513956 0.08333297 0.13042252 0.18836726 0.08049593 0.13099666 -0.27289668 0.07635804 -0.41871655 -0.0023594927 0.06636357 0.17028476 0.07993266 0.09195308 -0.076796934 -0.21123049 0.017013531 0.013999522 -0.007700683 -0.0016155686 -0.40478125 0.27893525 0.0011397756 -0.100773476 0.08518998 -0.20626236 -0.21345915 0.05356084 -0.18959832 0.051911727 -0.09053612 0.015781814 0.19921732 0.13430922 0.14098512 -0.26619938 0.08480323 -0.08507652 -0.0069387415 0.0635029 0.042493917 -0.0431283 0.05114595 -0.03031145 0.12996271 0.06650283 -0.3256223 0.1739309 0.03892158 -0.11365066 -0.017513193 -0.035659067 -0.2693587 -0.15858178 0.03519348 0.07145349 0.10920473 -0.04728225 -0.0030634787 -0.21710181 -0.06903187 0.108703054 -0.020129398 0.084613375 -0.11848342 -0.06762336 0.050082225 0.24646054 -0.06412626 -0.12308683 0.14076956 -0.10665298 0.13051459 -0.3329722 -0.07916564 0.048715904 0.07265753 0.054873064 -0.099495895 0.0613824 0.025769863 0.11674803 0.115536526 -0.14860123 0.20546305 0.04928941 -0.13886581
đến 0.2263253 -0.24831147 -0.07346069 0.11136451 0.06662296 -0.047210686 -0.2741459 -0.184776 -0.3037326 -0.13404551 0.17476611 -0.12120614 0.06321171 0.12305737 0.099224634 0.14181739 0.20322981 0.08922774 0.14536527 -0.27327242 0.09361706 -0.42847568 0.009174892 0.056505147 0.18883738 0.07381732 0.100254804 -0.0777336 -0.22673605 0.028477117 0.01805255 -0.011187518 -0.0010562333 -0.42308357 0.28137243 -0.004649858 -0.10717265 0.07558623 -0.2078355 -0.22517075 0.04052692 -0.19664645 0.06140169 -0.08494479 0.008956233 0.20399514 0.14483115 0.14301369 -0.27183452 0.10311404 -0.09063372 -0.016238892 0.06241617 0.02786087 -0.04670927 0.071589395 -0.027707411 0.13553953 0.06731574 -0.340602 0.17781961 0.03067082 -0.11782431 -0.017851422 -0.04127408 -0.28187642 -0.16295713 0.045534205 0.07288719 0.119787075 -0.050282683 0.0030949563 -0.2333393 -0.0741716 0.1043987 -0.03281716 0.08150244 -0.1189169 -0.076420955 0.059634805 0.25040925 -0.072101064 -0.13186297 0.15046477 -0.11479943 0.12916988 -0.34739077 -0.09247964 0.052877486 0.080355555 0.045687396 -0.105328016 0.05775164 0.020158963 0.111754216 0.118467666 -0.16212478 0.20675658 0.047563978 -0.1441267
đường 0.23115464 -0.25838894 -0.052311838 0.107260756 0.06565122 -0.05010087 -0.26533237 -0.18517825 -0.3023966 -0.12471164 0.16364601 -0.13816608 0.06483041 0.12652642 0.08289638 0.14025132 0.18797325 0.09234642 0.14436342 -0.2765711 0.07854947 -0.4277721 -0.0012936762 0.0644154 0.1883274 0.07659676 0.09406268 -0.0885302 -0.22280288 0.027214773 0.020115258 -0.013999247 -0.0061494005 -0.4232562 0.278722 -0.007001697 -0.09866121 0.08587145 -0.21491143 -0.21940938 0.053661905 -0.1897781 0.056813814 -0.09515222 0.016018415 0.20457508 0.1414448 0.13906248 -0.26165593 0.1039182 -0.08798789 -0.0146336835 0.070597336 0.037444916 -0.0427222 0.07055098 -0.037257206 0.13385004 0.063567355 -0.3324627 0.16566992 0.0284768 -0.11640428 -0.01293649 -0.035890874 -0.27026027 -0.15229729 0.027143408 0.07136399 0.11584485 -0.04484578 -0.0009475955 -0.23219585 -0.063638605 0.106501006 -0.021036044 0.08780637 -0.12660414 -0.056953147 0.055387087 0.25192228 -0.06195091 -0.12079293 0.15070665 -0.11515744 0.13746002 -0.33321112 -0.083976775 0.04894033 0.08676317 0.045588534 -0.10807892 0.061540592 0.0267489 0.11372827 0.11755926 -0.15569039 0.20348907 0.046542283 -0.14503154
nhà 0.2300992 -0.24508667 -0.050575018 0.1063255 0.05945543 -0.035772804 -0.2664328 -0.16407715 -0.29795986 -0.11973798 0.16198434 -0.13009948 0.055253964 0.1315849 0.0906903 0.12884566 0.18028358 0.09725589 0.13593699 -0.2758258 0.08321242 -0.41769558 -0.0026687826 0.07229771 0.17164025 0.07665422 0.09968591 -0.08184666 -0.22240001 0.026846645 0.010839585 -0.007796048 -0.0049454463 -0.41342688 0.27249905 -0.00048083888 -0.10479318 0.07298425 -0.21182768 -0.21419378 0.047520358 -0.19141297 0.047680702 -0.08608973 0.016403731 0.2049714 0.123825125 0.14331697 -0.26163006 0.09343259 -0.08820607 -0.008598597 0.066502474 0.042780783 -0.049425043 0.06327681 -0.02433419 0.1224237 0.06750534 -0.32311663 0.16836056 0.032032873 -0.12087147 -0.019770058 -0.034365132 -0.26931936 -0.14942054 0.033091445 0.07318399 0.12064421 -0.04631736 -0.0036785412 -0.22211818 -0.06694925 0.11374313 -0.01972901 0.079102024 -0.11243121 -0.06322322 0.05092914 0.25045684 -0.05957358 -0.12641652 0.15304616 -0.1149563 0.13839911 -0.33759573 -0.081564635 0.052124396 0.0738141 0.04226468 -0.09226834 0.05880255 0.023446534 0.10943783 0.11622194 -0.1463205 0.20124762 0.048354384 -0.14426243
càng 0.22384731 -0.26418874 -0.066704646 0.10043019 0.08394296 -0.054225836 -0.25437275 -0.17804362 -0.2859121 -0.11621948 0.16605416 -0.13822839 0.05957047 0.1259615 0.09247408 0.12024467 0.19601457 0.06249927 0.13424142 -0.26361385 0.05635597 -0.4398305 -0.0029632314 0.056361444 0.19329421 0.065879315 0.08792409 -0.07562461 -0.20271868 0.033480342 0.03987445 0.0029670037 -0.015408715 -0.42782506 0.26666418 -0.013241495 -0.09538692 0.10881117 -0.21327844 -0.21142909 0.056523386 -0.192011 0.041704644 -0.08997317 -0.004336305 0.18849687 0.13469842 0.15109062 -0.2524993 0.089830786 -0.0804008 -0.021099439 0.06880199 0.068719245 -0.06563671 0.058795806 -0.054708276 0.12800638 0.07479482 -0.33762866 0.16181082 0.034227476 -0.11012876 -0.022129096 -0.040683668 -0.27308005 -0.14133981 0.030762834 0.06941236 0.12573294 -0.057753567 -0.009319009 -0.22421817 -0.063546024 0.11103834 -0.021488806 0.114894725 -0.11993151 -0.0649537 0.0790386 0.24836265 -0.06884708 -0.09698416 0.13297278 -0.11245094 0.11708979 -0.32256085 -0.08154375 0.054937992 0.101049095 0.043558303 -0.09780156 0.062610336 0.01240436 0.14228909 0.10457585 -0.14705373 0.18929812 0.025086474 -0.11715778
nào 0.22374383 -0.25043312 -0.05680502 0.10390434 0.056047115 -0.048653916 -0.2735079 -0.18354085 -0.30903274 -0.1283203 0.17899926 -0.11786711 0.051722873 0.122740425 0.09893918 0.13556057 0.20020512 0.08920607 0.15378235 -0.2769822 0.09328631 -0.4237849 0.0006536806 0.062853955 0.18257381 0.082840435 0.096168645 -0.08601039 -0.23383813 0.015528484 0.010678788 -0.0059623206 0.0019683235 -0.41229987 0.28206426 -0.00041265142 -0.092211284 0.0858215 -0.20854495 -0.21508802 0.04968336 -0.19353038 0.061595473 -0.07841443 0.017786747 0.21644036 0.13598774 0.15595521 -0.25972918 0.08811958 -0.090204105 -0.011648024 0.05395268 0.032658096 -0.039314896 0.066187225 -0.020260302 0.1388589 0.07174487 -0.3496765 0.17027093 0.037873253 -0.11114915 -0.005247818 -0.03165039 -0.27787268 -0.1623497 0.035221513 0.082512885 0.122811586 -0.04784108 0.0075181588 -0.2422558 -0.06871496 0.10507709 -0.027824022 0.08812053 -0.12320839 -0.06792689 0.061196584 0.25663343 -0.068197496 -0.13552307 0.1486926 -0.110628605 0.13545866 -0.33596617 -0.09774698 0.059892897 0.07373146 0.048633296 -0.10138024 0.067006946 0.020927006 0.12244021 0.11488762 -0.16363087 0.21279499 0.03898462 -0.15378404
trời 0.22910058 -0.2540307 -0.05763766 0.10391133 0.0625028 -0.042107694 -0.26867566 -0.16951004 -0.29459274 -0.113521606 0.15648408 -0.119758435 0.047152147 0.11993686 0.088292375 0.13452198 0.18260941 0.0825485 0.13695052 -0.2589786 0.07781168 -0.42889002 0.005319162 0.05850765 0.18335514 0.07497405 0.0887624 -0.07649037 -0.22108848 0.020524664 0.013634251 -0.01758852 -0.0034522186 -0.40782088 0.28206328 0.0022891334 -0.09584015 0.07963604 -0.20424257 -0.21674636 0.038959168 -0.17575707 0.05964434 -0.07937062 0.007894831 0.20693958 0.13405566 0.14986435 -0.2615924 0.08800894 -0.09294612 -0.0077106273 0.05621798 0.033943415 -0.049597193 0.05927117 -0.039974544 0.13068385 0.06681942 -0.33526176 0.17185658 0.032816764 -0.11781263 -0.0161009 -0.023966677 -0.2577819 -0.16082664 0.02577638 0.06527822 0.113061175 -0.04563439 0.007034445 -0.23295271 -0.06530741 0.11156647 -0.030391658 0.07786775 -0.12639388 -0.06654657 0.047424655 0.25557765 -0.061324194 -0.12631585 0.14074604 -0.114073865 0.12216829 -0.3348059 -0.08448413 0.05486391 0.077081256 0.05111193 -0.09690772 0.061957084 0.02180448 0.11585244 0.121805415 -0.14837392 0.19985741 0.040910278 -0.13914955
ngày 0.22677319 -0.25921807 -0.05073673 0.12270709 0.0672193 -0.045090638 -0.25761017 -0.17605053 -0.29861557 -0.12205153 0.15792212 -0.12012837 0.0568187 0.12811314 0.09038414 0.13023087 0.18170536 0.09537285 0.13780618 -0.27211058 0.06549023 -0.43579972 0.0041138134 0.06313847 0.19064195 0.07110348 0.098467685 -0.07742166 -0.2204516 0.016505312 0.010716932 -0.020091781 -0.00044848406 -0.41893807 0.28406614 0.0015999476 -0.1056714 0.075268924 -0.21711875 -0.21454571 0.04574038 -0.18794666 0.055165935 -0.0939413 0.018091645 0.21303642 0.13233605 0.14125901 -0.2591078 0.088882625 -0.09734927 -0.012420644 0.065376624 0.045524973 -0.04460466 0.06606003 -0.0440448 0.12519449 0.071043104 -0.34029296 0.17031614 0.032175735 -0.12469772 -0.011613689 -0.021254376 -0.27295455 -0.1545702 0.03630023 0.074887305 0.11167807 -0.050983075 0.008645082 -0.2245618 -0.068147264 0.10946357 -0.024308069 0.07503685 -0.12783766 -0.058260538 0.054252967 0.2480931 -0.053446602 -0.11663641 0.15264328 -0.10183606 0.13123193 -0.33093107 -0.08917996 0.059497457 0.08045166 0.054234788 -0.1084743 0.055331003 0.02578316 0.112710774 0.12428381 -0.15139346 0.20382683 0.038121127 -0.14662124
thân 0.22622769 -0.25806606 -0.06627373 0.112819396 0.0657398 -0.048090182 -0.2661755 -0.1838183 -0.2985304 -0.12245805 0.17000763 -0.12936713 0.060276147 0.12344323 0.09772012 0.14159267 0.19900192 0.094042696 0.14909545 -0.27321205 0.0887499 -0.43553343 0.00455338 0.054102525 0.17681521 0.077739395 0.09846201 -0.07376509 -0.21891317 0.027511694 0.009262898 -0.011609319 0.00314348 -0.41484848 0.27630714 -0.0006413864 -0.098656744 0.08116833 -0.20795865 -0.21968178 0.041845128 -0.1967143 0.059422377 -0.08512953 0.013813931 0.21616325 0.14215773 0.15171315 -0.2666147 0.095605694 -0.08315062 -0.013239353 0.06541777 0.039421067 -0.046225935 0.06657499 -0.03387205 0.1295984 0.06399431 -0.3370206 0.16850771 0.033190537 -0.11371776 -0.0105818575 -0.03292531 -0.28281215 -0.15443255 0.041200254 0.080097824 0.118820824 -0.045169443 0.006779436 -0.23809825 -0.060453076 0.110773 -0.019561583 0.08607797 -0.11455216 -0.05907362 0.058126777 0.25228736 -0.06075141 -0.12741677 0.15247431 -0.110421225 0.13607562 -0.3408398 -0.09903011 0.059659053 0.077927105 0.04347897 -0.1069335 0.056200523 0.021532437 0.11177322 0.11998284 -0.16194554 0.21121588 0.047463216 -0.154166
như 0.2282983 -0.25537905 -0.05082476 0.11266511 0.071217805 -0.054165855 -0.26323584 -0.18088722 -0.28900567 -0.12519431 0.16654004 -0.1289605 0.0641635 0.12021838 0.08595077 0.12955944 0.19917862 0.08074433 0.13821761 -0.27179873 0.073760636 -0.42722467 0.0052681817 0.06179475 0.17859648 0.0821858 0.10425851 -0.07904882 -0.20735456 0.0276661 0.01705806 -0.018549237 0.0042387065 -0.42065516 0.2723588 -0.005065211 -0.099353395 0.089219615 -0.21323255 -0.21446328 0.056385767 -0.19196649 0.049238145 -0.08821575 0.00097443827 0.21351135 0.13181005 0.15161836 -0.25425217 0.08835989 -0.08309837 -0.01680293 0.060642693 0.050054725 -0.04263818 0.061216943 -0.0386578 0.14612451 0.07540497 -0.3304166 0.16548261 0.033365674 -0.11814683 -0.022105433 -0.033138577 -0.26490286 -0.14084874 0.032724146 0.0740767 0.116885915 -0.054098915 0.0013124484 -0.22980058 -0.068360634 0.109997906 -0.023079427 0.09450547 -0.12320301 -0.05047356 0.06668499 0.24393365 -0.060886968 -0.11351536 0.14653213 -0.120962396 0.13226555 -0.32669923 -0.08760351 0.06329152 0.07355301 0.039672274 -0.109486975 0.053019237 0.017180199 0.12875377 0.11567524 -0.16187239 0.19682218 0.0502555 -0.13066775
khi 0.2278073 -0.26104265 -0.05590769 0.107262656 0.051267263 -0.038031567 -0.25097525 -0.17103633 -0.29787627 -0.13016886 0.14566913 -0.123535596 0.067730464 0.12641801 0.10141901 0.13725634 0.17965735 0.09994872 0.1308467 -0.27768078 0.061443124 -0.414594 0.0066263876 0.0799252 0.17542723 0.077966474 0.09730038 -0.053577226 -0.2042129 0.010121953 -0.00043315536 -0.033602975 0.0014521957 -0.3974132 0.26450366 0.007857225 -0.09624776 0.08550597 -0.20098001 -0.20414965 0.0572045 -0.18013792 0.05021118 -0.10248367 0.017908126 0.18860881 0.12736404 0.13683286 -0.26920608 0.09175019 -0.101801015 -0.0056308126 0.052855384 0.043813255 -0.037017886 0.050252233 -0.042969845 0.13665605 0.060386606 -0.32387492 0.16592842 0.037364572 -0.10690014 -0.03125473 -0.03138978 -0.24674205 -0.16473755 0.026817124 0.064564146 0.111873865 -0.06040491 -0.010186942 -0.22394314 -0.061335854 0.12152608 -0.022493843 0.08885505 -0.117572 -0.051491063 0.046538573 0.22778398 -0.04834296 -0.12677681 0.15207706 -0.11431951 0.119009465 -0.325217 -0.07283566 0.04292785 0.07953658 0.056350734 -0.09927916 0.052347813 0.023906486 0.11431808 0.10853695 -0.16498978 0.19706954 0.04295848 -0.15532623
vào 0.23291673 -0.24932003 -0.052386466 0.101793244 0.06637846 -0.04006178 -0.2566537 -0.17653883 -0.29052326 -0.12207998 0.15801476 -0.1294699 0.061270703 0.12760769 0.095427014 0.13044037 0.19234304 0.096107356 0.14633846 -0.27743608 0.07447394 -0.42352682 -0.005909144 0.06937124 0.17651911 0.081502825 0.104726434 -0.085455716 -0.21368317 0.021581182 0.0074133556 -0.012070238 -0.0043132207 -0.40406275 0.27847812 -0.0071686557 -0.105910935 0.08115115 -0.20911533 -0.21847245 0.05102214 -0.19570115 0.05499143 -0.090310074 0.0019906263 0.20337941 0.13542356 0.14141187 -0.2625367 0.09715448 -0.094321474 -0.015368916 0.05382538 0.032320477 -0.042608336 0.060093638 -0.019902946 0.12873259 0.06988957 -0.32799155 0.17080179 0.032217007 -0.11907671 -0.023027465 -0.03722087 -0.2752806 -0.15485908 0.0358978 0.0651867 0.1162503 -0.053139564 0.0022523315 -0.22019508 -0.058901172 0.1032451 -0.021699116 0.08136857 -0.11718089 -0.06554383 0.050111182 0.23828524 -0.06461315 -0.11977435 0.15166447 -0.117253184 0.13475747 -0.33539015 -0.08818602 0.04663685 0.07224408 0.049967084 -0.10179873 0.06781635 0.0256067 0.10850105 0.11358667 -0.14936788 0.19459234 0.048255835 -0.14003047
mặt 0.22514363 -0.25253248 -0.066735156 0.10320593 0.06898379 -0.046870638 -0.2682248 -0.1724498 -0.28993255 -0.12135981 0.17018221 -0.119142465 0.04888759 0.12803397 0.09566053 0.13459264 0.1871127 0.074404605 0.14371431 -0.2707902 0.072455935 -0.42305768 -0.000772064 0.068597265 0.19219586 0.071998045 0.0999828 -0.07730155 -0.20977105 0.016992474 0.018689286 -0.016093139 -0.0038718076 -0.41235313 0.2634608 -0.010929163 -0.10305023 0.08271272 -0.2008291 -0.21749169 0.038886815 -0.1907095 0.05070497 -0.08766294 0.0077658584 0.20359224 0.14183877 0.14652652 -0.2639156 0.086468086 -0.0951381 -0.014826087 0.056354012 0.04189505 -0.04978595 0.062372398 -0.03736487 0.13233916 0.06632542 -0.32850966 0.17428416 0.027743366 -0.107864864 -0.015290351 -0.025688829 -0.27449027 -0.15088959 0.03168323 0.06843007 0.11615764 -0.046904337 -0.000946436 -0.22114392 -0.060440212 0.100558646 -0.030281143 0.089089125 -0.12089746 -0.056864202 0.05506052 0.23683164 -0.06513399 -0.12307077 0.15177736 -0.12064958 0.1220043 -0.3344247 -0.07870788 0.046137862 0.07405171 0.050945554 -0.09908074 0.05458563 0.021744711 0.11429486 0.11344137 -0.15596458 0.19677606 0.03297113 -0.13802768
sao 0.23386937 -0.25854608 -0.05391556 0.11528286 0.065924875 -0.047264565 -0.27082992 -0.1805963 -0.30960676 -0.13618863 0.16025892 -0.12029344 0.06630274 0.13047469 0.09099805 0.13464953 0.20145513 0.08666511 0.13822089 -0.26530534 0.083332844 -0.42441782 0.004971434 0.06325908 0.18427926 0.07906868 0.09819198 -0.07395325 -0.21631008 0.017806431 0.00795215 -0.015168061 0.005511836 -0.41747025 0.28048468 -0.010220854 -0.09371057 0.067677416 -0.20265922 -0.22054113 0.03675404 -0.19531193 0.052954793 -0.08052398 0.02475729 0.20451881 0.14931007 0.14700396 -0.267562 0.09695112 -0.09461768 -0.022334876 0.054501798 0.036981378 -0.031794827 0.06308661 -0.023826055 0.12756048 0.06334191 -0.33708107 0.18019933 0.045050744 -0.105638385 -0.018396258 -0.04252714 -0.27962065 -0.1480481 0.039780557 0.07366791 0.12217501 -0.04603508 -0.0016569376 -0.24530244 -0.06838336 0.113301724 -0.03270437 0.08830163 -0.12182167 -0.05515751 0.059432123 0.2480097 -0.072544545 -0.12866026 0.14919874 -0.11679487 0.12938374 -0.34192723 -0.09816343 0.054918002 0.07227205 0.04163421 -0.10652462 0.050413392 0.013867687 0.11082066 0.12565139 -0.16599168 0.1996385 0.03917325 -0.14633578
vàng 0.222407 -0.25714815 -0.06336796 0.1159418 0.055287216 -0.04742537 -0.2575037 -0.17321707 -0.2883615 -0.123890385 0.16768423 -0.13225284 0.05900723 0.11194531 0.10109086 0.13048892 0.18506382 0.083312295 0.14335352 -0.26849005 0.06958542 -0.4188712 0.0012524633 0.06782069 0.17698976 0.084884994 0.094052695 -0.07462156 -0.20417055 0.025541032 0.017191326 -0.010701259 -0.003355607 -0.40020022 0.28445867 0.0004737684 -0.09530074 0.08274428 -0.20252432 -0.2190029 0.04567184 -0.17934355 0.059616663 -0.086745664 0.016432898 0.19318219 0.13815321 0.15021554 -0.26649955 0.10609523 -0.09360151 -0.009790151 0.06761883 0.035828687 -0.03715294 0.051973786 -0.043288417 0.13621284 0.07423784 -0.3367785 0.17721094 0.028080178 -0.12396228 -0.02032753 -0.029665526 -0.26197332 -0.15121281 0.027903596 0.073346265 0.11700021 -0.040350717 -0.002480202 -0.22131997 -0.06715036 0.099997774 -0.019691218 0.08366893 -0.1242488 -0.06328712 0.058366805 0.23715425 -0.04929333 -0.11666271 0.13326052 -0.11734331 0.13252959 -0.3334295 -0.0943232 0.04931985 0.08150535 0.05060474 -0.097397715 0.06058687 0.017625863 0.112405196 0.12913278 -0.14649157 0.2025695 0.051720485 -0.14613092
duyên 0.23434857 -0.25814787 -0.061326582 0.11013525 0.067874566 -0.03996557 -0.2724011 -0.16703239 -0.28911537 -0.12972037 0.16365169 -0.12176085 0.058113832 0.12557164 0.08728969 0.13664505 0.19484505 0.082986176 0.14543225 -0.26056534 0.08952893 -0.43216416 0.0063180095 0.060567323 0.18300988 0.07392826 0.09399836 -0.07213742 -0.22256732 0.027563358 0.018713184 -0.0063092546 0.0022162213 -0.41693276 0.27100137 -0.009055066 -0.094590925 0.0811871 -0.20681264 -0.20869072 0.049460717 -0.1845599 0.06211872 -0.087606534 0.02749903 0.19874531 0.14036313 0.14968492 -0.25112388 0.09580435 -0.094254576 -0.01786098 0.057024032 0.029508064 -0.050483793 0.06011485 -0.032262877 0.1276158 0.068868645 -0.3383165 0.17207018 0.02954403 -0.115620255 -0.006803413 -0.03965801 -0.28023848 -0.15075299 0.040303092 0.07484073 0.12320448 -0.040594965 0.011814772 -0.23398417 -0.06731195 0.110947594 -0.028449591 0.07157864 -0.117204584 -0.069554664 0.049648065 0.24953237 -0.064396374 -0.116636015 0.15534486 -0.11778009 0.12736827 -0.34010294 -0.09579476 0.052782398 0.079384625 0.045712203 -0.09628857 0.06655718 0.019178927 0.10980967 0.12456117 -0.14952335 0.2075289 0.050435618 -0.13888557
xa 0.22051036 -0.25553635 -0.07114355 0.10193399 0.07782648 -0.049706183 -0.26096004 -0.19093151 -0.3021999 -0.10639292 0.17782524 -0.13497768 0.047563117 0.12240467 0.08206682 0.14169481 0.18852338 0.085892744 0.15411417 -0.28264076 0.07092688 -0.43966317 -0.0040901606 0.07015311 0.18056647 0.06682017 0.09440982 -0.095314845 -0.22147125 0.024439858 0.029243773 -0.0072404295 0.007588409 -0.41684455 0.28474414 0.0044072047 -0.10637814 0.07172632 -0.20534676 -0.22320886 0.03933886 -0.18502736 0.05827584 -0.09956634 0.00031601166 0.21863928 0.14492221 0.15159565 -0.27400142 0.09812793 -0.10155105 -0.014596983 0.06526907 0.041958537 -0.050922316 0.07620015 -0.042099692 0.14062022 0.077501364 -0.3399624 0.17433845 0.025778096 -0.12590912 -0.006901322 -0.023522774 -0.27416223 -0.14475906 0.023199944 0.082118414 0.11063406 -0.03538951 -0.0014278783 -0.23747556 -0.06623395 0.10004935 -0.038609024 0.09621915 -0.1302545 -0.07636344 0.067563616 0.2552853 -0.08188184 -0.10704683 0.1361974 -0.12065119 0.14338326 -0.33333784 -0.08263264 0.060526855 0.09668374 0.05229119 -0.096567854 0.0566044 0.010693656 0.13525836 0.11351159 -0.15680023 0.20420958 0.036495537 -0.14814973
về 0.22922558 -0.24895784 -0.060481414 0.11210835 0.059949357 -0.045157563 -0.25658143 -0.172231 -0.3007356 -0.12740684 0.16665229 -0.13412416 0.062737875 0.12873267 0.08773548 0.12979208 0.18788303 0.09279106 0.14046906 -0.27933928 0.077031784 -0.42243725 0.0038327603 0.06702596 0.19081536 0.08362848 0.096521616 -0.082354695 -0.22655804 0.016419284 0.01850055 -0.018411202 -0.0064054364 -0.4211611 0.29032832 -0.0037806178 -0.10707689 0.07283995 -0.21632849 -0.22085838 0.048890863 -0.18921278 0.05960156 -0.097143464 0.0032916302 0.20769964 0.12938559 0.15017003 -0.26161584 0.10722265 -0.101343855 -0.012138016 0.06470456 0.03328606 -0.048423614 0.06361801 -0.028569486 0.13292114 0.06287436 -0.33068904 0.17187192 0.030229319 -0.11166164 -0.013822255 -0.028201386 -0.2661717 -0.16347164 0.04258834 0.067999445 0.12375793 -0.046199594 0.011706611 -0.22718589 -0.059876014 0.10183958 -0.017366603 0.07996453 -0.12735924 -0.0694543 0.043945104 0.24596451 -0.060712498 -0.12353075 0.1587165 -0.11142834 0.13612857 -0.3416547 -0.083261915 0.052991096 0.08390343 0.04177509 -0.09915692 0.056890853 0.027866045 0.10741656 0.12507652 -0.14793204 0.19782987 0.04699019 -0.14698267
tay 0.22998948 -0.25255695 -0.06053412 0.10666564 0.057290297 -0.03551299 -0.25255573 -0.16970427 -0.2826009 -0.12394121 0.15790448 -0.12650771 0.052076045 0.122945316 0.08825485 0.13589351 0.19124459 0.0859276 0.1274585 -0.26282912 0.079754524 -0.41935983 -0.0011692466 0.0699626 0.18412386 0.083245985 0.09288308 -0.080783494 -0.20649244 0.023727588 0.017317316 -0.01446537 -0.0026704152 -0.39859626 0.27281445 -0.0020114584 -0.096940786 0.08009451 -0.20504762 -0.20402353 0.05171856 -0.19036454 0.05139731 -0.087587126 0.013599548 0.19629374 0.13314834 0.14170834 -0.25965366 0.08651967 -0.08681415 -0.012044114 0.055464614 0.033921067 -0.0417751 0.052374836 -0.024556886 0.12517461 0.073266365 -0.32889894 0.1698311 0.036038604 -0.11187521 -0.028946137 -0.028016351 -0.26800528 -0.14755909 0.038263846 0.059633676 0.10928207 -0.05386027 -0.0040818877 -0.22606929 -0.068130955 0.108203955 -0.02600766 0.07807006 -0.1145642 -0.063528545 0.04893912 0.23582375 -0.053005103 -0.12622404 0.15105474 -0.11481907 0.12594438 -0.3356767 -0.08176131 0.051719032 0.07859755 0.041836176 -0.1001967 0.06555268 0.021031534 0.106830776 0.116993174 -0.14865008 0.19745599 0.042416018 -0.14460509
sinh 0.22157706 -0.25102594 -0.049570926 0.105667755 0.06723914 -0.042450484 -0.25203326 -0.1688071 -0.27732092 -0.12663068 0.15033457 -0.13411464 0.053138185 0.11219635 0.09249743 0.13214394 0.19122796 0.08399791 0.13366409 -0.2614365 0.075806886 -0.41740134 0.00540606 0.056694392 0.18045953 0.081078805 0.10117014 -0.07831402 -0.20452352 0.02144917 0.024613775 -0.014443268 -0.010999902 -0.40492094 0.2661926 -0.0012195058 -0.09277227 0.08156266 -0.20061107 -0.20655844 0.0511171 -0.18764746 0.057086557 -0.0900338 0.014610042 0.1969992 0.140629 0.14524147 -0.26090023 0.09964122 -0.090571016 -0.013995667 0.062464636 0.035054293 -0.051182088 0.06413975 -0.0328898 0.13866298 0.07320662 -0.32694235 0.16903424 0.034959447 -0.10814319 -0.028105441 -0.03867052 -0.2730188 -0.14154765 0.041735336 0.071125515 0.11685884 -0.047821943 0.0027081128 -0.21584071 -0.059597168 0.11216732 -0.013512527 0.08056176 -0.11759198 -0.06431406 0.058103915 0.24568187 -0.059282072 -0.11154831 0.14302896 -0.11466453 0.12871379 -0.3340112 -0.08818719 0.05343353 0.08693178 0.04826471 -0.09310896 0.059314944 0.019885495 0.115100116 0.12338716 -0.1532687 0.19006468 0.03865978 -0.14196627
làm 0.22797514 -0.25143206 -0.066025406 0.115951166 0.057627663 -0.045440815 -0.27328935 -0.1761226 -0.2956261 -0.13872907 0.15730296 -0.12574123 0.063172385 0.1183461 0.10151961 0.14011836 0.20048966 0.09451411 0.14337648 -0.26532593 0.075297594 -0.4301964 -0.002533796 0.049160283 0.17653637 0.07421913 0.0953042 -0.07173688 -0.21986437 0.02738886 0.002138802 -0.015482561 0.00069086306 -0.40947592 0.26787236 0.001133328 -0.088536724 0.078086846 -0.20592707 -0.22233027 0.03333957 -0.19213016 0.049449317 -0.07671787 0.020070735 0.20165727 0.14137878 0.1436943 -0.2679335 0.081943296 -0.079567246 -0.016450444 0.059422124 0.042750284 -0.042301364 0.060239304 -0.032166623 0.13231727 0.06528614 -0.33189473 0.16517732 0.035454184 -0.11177254 -0.020258328 -0.04224378 -0.27447695 -0.14750074 0.028579623 0.06915548 0.12313471 -0.04904507 0.0011766487 -0.24051273 -0.06982839 0.09792279 -0.033157792 0.08487258 -0.12688875 -0.0700533 0.047046576 0.25511938 -0.07316541 -0.12342316 0.15886526 -0.10582931 0.13168858 -0.3401778 -0.093632415 0.059800137 0.071936525 0.05010402 -0.106566325 0.055371396 0.012573025 0.10644055 0.12866814 -0.15681195 0.20311576 0.045474797 -0.13914841
chàng 0.23408026 -0.26321173 -0.05527753 0.10934515 0.06787899 -0.041167114 -0.2639924 -0.17681152 -0.29706562 -0.12219676 0.16170543 -0.13543372 0.06365057 0.12888964 0.09355188 0.13545413 0.18652883 0.08190339 0.14410917 -0.2781266 0.07833847 -0.4335297 0.00091115263 0.065423734 0.1860146 0.07694298 0.0986144 -0.0893411 -0.22218098 0.025676109 0.016585847 -0.0073751598 -0.00078880624 -0.41945204 0.2817524 -0.011637828 -0.10329889 0.085378036 -0.211898 -0.21315931 0.052539274 -0.19550937 0.054561663 -0.08659179 0.013965716 0.21062368 0.13324745 0.14567071 -0.26833057 0.09486162 -0.094779514 -0.02102922 0.067329444 0.042904913 -0.049401812 0.07221545 -0.036901064 0.13341196 0.06548493 -0.3428921 0.17463751 0.038325183 -0.1227042 -0.026141249 -0.027931081 -0.28549138 -0.14379887 0.03560234 0.0663309 0.12058391 -0.043841362 -0.004491586 -0.22750954 -0.057115745 0.108804084 -0.018117558 0.089507684 -0.12359287 -0.06919291 0.063464105 0.25329408 -0.06334529 -0.11235062 0.14739746 -0.11271441 0.13323265 -0.34172523 -0.091391996 0.048293706 0.08631765 0.043568905 -0.09622002 0.06318208 0.025299529 0.123316094 0.117535934 -0.1590689 0.20262614 0.040772673 -0.14498311
thôi 0.24128486 -0.25459608 -0.08248966 0.12171311 0.066477716 -0.037660256 -0.25883597 -0.20353188 -0.3145506 -0.12889412 0.15808453 -0.11758523 0.058557525 0.12103934 0.09917899 0.15203328 0.20516737 0.091557845 0.15179713 -0.2574406 0.09505952 -0.4503488 0.010570149 0.042828713 0.18229406 0.06042847 0.10706236 -0.09037535 -0.22445066 0.036250673 0.0018969851 0.0005861347 0.021115614 -0.4290103 0.26689646 -0.01819429 -0.09329527 0.053132728 -0.1970173 -0.21875542 0.035863385 -0.1948967 0.05482592 -0.07285069 0.030349419 0.20726319 0.14538445 0.15498354 -0.26266778 0.10668612 -0.09257126 -0.027029278 0.061390877 0.024425223 -0.020288717 0.06344199 -0.0077175503 0.13704428 0.07563852 -0.3717711 0.17983618 0.041771706 -0.121234424 0.0022804178 -0.0472216 -0.30099943 -0.14234422 0.053483848 0.085569836 0.11002413 -0.036285546 0.0035653075 -0.25064814 -0.067576155 0.10518944 -0.02856507 0.07722993 -0.12075165 -0.07163011 0.08415051 0.2546554 -0.07387716 -0.13652706 0.16480106 -0.11982162 0.13625881 -0.366364 -0.10527351 0.061763324 0.078848615 0.02320174 -0.102068104 0.059753597 0.029390527 0.11796433 0.108893074 -0.16575246 0.20290741 0.051971085 -0.15961583
thấy 0.23095083 -0.24909182 -0.063894145 0.10793517 0.057585843 -0.05025152 -0.26598975 -0.18078852 -0.28081465 -0.11605793 0.16654485 -0.12000907 0.047831498 0.11819954 0.08636681 0.13721073 0.18807873 0.0869023 0.1401668 -0.27589494 0.07746659 -0.42016947 -0.0032281158 0.06741998 0.18619233 0.08000343 0.103884004 -0.08709715 -0.20918342 0.019856663 0.02344002 -0.01687161 -0.0033405416 -0.40313843 0.27633473 0.0034826663 -0.09766379 0.08315896 -0.2090023 -0.21787801 0.053669013 -0.18426412 0.05450866 -0.08199197 0.007542447 0.19274153 0.12649487 0.1490128 -0.2675407 0.09435879 -0.09034383 -0.011697249 0.053730834 0.033565428 -0.04268087 0.059741065 -0.026312666 0.13659713 0.071510896 -0.33024704 0.17437406 0.03611046 -0.11043318 -0.021448698 -0.03552553 -0.27812943 -0.14220789 0.03572404 0.07207153 0.112404026 -0.051485557 -0.00395443 -0.22662339 -0.06977665 0.09576658 -0.032576293 0.0835678 -0.12261799 -0.071441546 0.05763032 0.236387 -0.064782076 -0.123161525 0.15288602 -0.10840103 0.13442314 -0.3331935 -0.08216036 0.043383498 0.078097716 0.05024345 -0.09219831 0.06311318 0.025204916 0.11569654 0.11872737 -0.14232397 0.19867575 0.039202802 -0.13694426
trước 0.23727557 -0.24347423 -0.056678493 0.10940841 0.06760314 -0.049200404 -0.26244807 -0.18254992 -0.2891279 -0.118761756 0.17112216 -0.1346176 0.062299628 0.120427884 0.08327709 0.13893114 0.18963255 0.09742129 0.13966094 -0.2673896 0.0770252 -0.4277225 -0.0031187304 0.061582122 0.17677794 0.07920103 0.1025275 -0.07039831 -0.2169027 0.021461714 0.011810167 -0.014261219 -0.0001801349 -0.4077561 0.28693706 -0.0011219375 -0.0987524 0.081224956 -0.21377106 -0.21186313 0.05584637 -0.18606378 0.06184027 -0.09648186 0.0060702516 0.2096562 0.12247239 0.14340289 -0.26428393 0.092058286 -0.10559942 -0.019604173 0.06465043 0.035184216 -0.034277912 0.061952807 -0.039272837 0.12940489 0.063688226 -0.33698547 0.16938215 0.018398115 -0.12024999 -0.009535685 -0.015983678 -0.27614194 -0.14128679 0.026120069 0.06482226 0.10484671 -0.049291074 0.008230256 -0.23197371 -0.061415717 0.10619063 -0.021967575 0.08738456 -0.11700275 -0.06974227 0.044056714 0.2449216 -0.05214411 -0.12215756 0.14177789 -0.10489524 0.12674722 -0.33246568 -0.075838424 0.051694106 0.090856336 0.050206486 -0.09039257 0.052158594 0.022192882 0.11134411 0.12700467 -0.1587189 0.20485726 0.041363373 -0.14872545
nghe 0.23043838 -0.25591397 -0.057552554 0.116381146 0.061600007 -0.04731219 -0.26262423 -0.17215852 -0.2788956 -0.1301584 0.16848055 -0.12957531 0.051918272 0.124261804 0.08848235 0.13150881 0.18677966 0.07656341 0.14423044 -0.26463705 0.074153446 -0.41961154 -0.008989227 0.06254515 0.18270065 0.06884105 0.09221572 -0.08808838 -0.21282114 0.027590433 0.025301708 -0.009175341 0.0021575636 -0.4044075 0.27543274 -0.0011808791 -0.1056119 0.093026035 -0.21041276 -0.21297398 0.046509452 -0.19618328 0.05502976 -0.09912429 0.010998391 0.2033078 0.13911517 0.1378042 -0.2632424 0.082649305 -0.089010395 -0.023590654 0.063179396 0.041617945 -0.054018714 0.06862973 -0.03783777 0.14437184 0.06509426 -0.33011743 0.16943431 0.024589289 -0.12735157 -0.013705297 -0.04048998 -0.2664836 -0.14706174 0.028616795 0.06261044 0.108152494 -0.044079468 -0.006472969 -0.22950575 -0.060997922 0.112143636 -0.02366917 0.098174475 -0.1127342 -0.0530321 0.057034682 0.24331957 -0.054544937 -0.11807353 0.13896258 -0.111969605 0.11852343 -0.3234122 -0.07709651 0.051107645 0.08107303 0.05163392 -0.1065883 0.04692222 0.016449906 0.1263749 0.10906693 -0.14033958 0.20070119 0.050765593 -0.13283849
chi 0.2313816 -0.25165045 -0.05047613 0.11721331 0.07202816 -0.051766947 -0.26352152 -0.18268976 -0.2994549 -0.12339431 0.15273115 -0.118086904 0.055050537 0.1241123 0.08848237 0.12982155 0.18861586 0.08950136 0.14278981 -0.26866725 0.08294631 -0.4248555 -0.003600016 0.06515704 0.1765407 0.083250985 0.09277639 -0.068695895 -0.22100654 0.018206768 0.009923097 -0.011482341 0.011999385 -0.4177961 0.26850006 -0.004522866 -0.096407704 0.082656555 -0.20583381 -0.22428 0.047614727 -0.19206052 0.059658993 -0.081653394 0.02331803 0.2120212 0.13920797 0.13644183 -0.26109338 0.09216565 -0.079798274 -0.012326629 0.05457815 0.027556406 -0.044957604 0.060457233 -0.022845926 0.12132625 0.068038195 -0.33326787 0.17523971 0.033148766 -0.10959838 -0.006047612 -0.032181416 -0.27351403 -0.1548463 0.042300213 0.07130391 0.113813646 -0.049858466 0.0030478197 -0.22761913 -0.062386937 0.1134587 -0.022795815 0.08534205 -0.11734636 -0.06453226 0.053091064 0.25641882 -0.07326617 -0.118828945 0.15001193 -0.10634428 0.12829234 -0.34476873 -0.09750773 0.0644609 0.08526076 0.048811983 -0.101911075 0.06558899 0.01385749 0.1232666 0.11526375 -0.16788869 0.20745166 0.04854633 -0.145276
những 0.22685578 -0.2565099 -0.05268877 0.1175205 0.07503635 -0.051204804 -0.26692086 -0.16698681 -0.29503366 -0.12830764 0.16006532 -0.119523816 0.065477334 0.12942362 0.077150345 0.1402552 0.18097886 0.09035222 0.1464253 -0.269839 0.08169925 -0.42750642 -0.0024071066 0.050593827 0.18669848 0.08511737 0.10267227 -0.07145975 -0.219375 0.01977462 0.020411624 -0.015898257 -0.011292604 -0.4162062 0.27912077 -0.005271602 -0.09315252 0.074471734 -0.2145921 -0.211334 0.051026378 -0.19463643 0.05216728 -0.08048823 0.018685713 0.20325589 0.14241055 0.14699474 -0.25713095 0.08637375 -0.091477446 -0.011805606 0.068827495 0.035029832 -0.05418638 0.06966079 -0.039388422 0.13993531 0.06698325 -0.3323313 0.1721179 0.033374205 -0.120452374 -0.011874249 -0.034850642 -0.2791472 -0.1476815 0.029415306 0.06646441 0.11325884 -0.04706972 0.010474574 -0.22478199 -0.068319835 0.100649975 -0.025081934 0.07674374 -0.124935605 -0.05432091 0.052552942 0.24739696 -0.06118585 -0.12434414 0.14666873 -0.10930394 0.13867281 -0.33510917 -0.090431616 0.054726552 0.08342888 0.045464136 -0.10522906 0.056935858 0.02375859 0.11984986 0.119268976 -0.16123226 0.20747067 0.049292892 -0.13866453
sau 0.22680175 -0.25569454 -0.061182 0.110501274 0.06836863 -0.0532907 -0.25921682 -0.17617793 -0.2926405 -0.12103712 0.17265114 -0.13658795 0.059830695 0.13471152 0.09945085 0.14846535 0.20594214 0.09324957 0.15918419 -0.2685362 0.08151744 -0.4355004 0.0002815382 0.06823006 0.17629926 0.07835419 0.10522818 -0.08278525 -0.21373758 0.012098768 0.010516719 -0.020959359 -0.00780928 -0.42335132 0.29455608 -0.004013276 -0.104746826 0.08089649 -0.20673165 -0.23021327 0.048103306 -0.2027473 0.063910566 -0.08618727 0.01617187 0.2018138 0.13767219 0.15082428 -0.26088685 0.09876217 -0.0944212 -0.024530819 0.067571625 0.031932388 -0.050522182 0.07836685 -0.0241058 0.12764776 0.063264295 -0.343398 0.15838555 0.0401017 -0.11133047 -0.02204378 -0.026781164 -0.28013974 -0.15535572 0.031800266 0.07552006 0.12579545 -0.05288696 0.01574792 -0.23815006 -0.05776961 0.10568647 -0.032401245 0.08755644 -0.12519328 -0.07395182 0.04962836 0.24152218 -0.070704624 -0.11869628 0.15259312 -0.11853781 0.13776727 -0.35398734 -0.08701592 0.043216094 0.08495508 0.041501887 -0.10771961 0.067327924 0.024211343 0.108334765 0.12295258 -0.1456197 0.21729496 0.053740077 -0.14984374
hai 0.22364011 -0.25340697 -0.053401344 0.11353042 0.069016464 -0.03833239 -0.26865944 -0.17443095 -0.2878766 -0.11784745 0.1556845 -0.12727772 0.063011676 0.12904409 0.083359584 0.12399385 0.19317597 0.09032786 0.13095532 -0.26836783 0.07142181 -0.42320538 -0.003002697 0.07305744 0.17326385 0.068864085 0.09498636 -0.08580054 -0.2079837 0.023772048 0.012639359 -0.01766147 -0.009675481 -0.40754625 0.27563524 0.0038408525 -0.087518305 0.08798219 -0.2072316 -0.20874685 0.04371878 -0.18308352 0.057051796 -0.09083998 0.005066252 0.19698837 0.13862169 0.13786048 -0.2534104 0.09221771 -0.09167778 -0.015971068 0.06646833 0.045621995 -0.051105004 0.072489515 -0.03399328 0.12626296 0.05926761 -0.32935107 0.17233224 0.02370901 -0.10671739 -0.02069703 -0.021653168 -0.25870827 -0.13968167 0.02507663 0.073181204 0.1108364 -0.045903478 0.007534674 -0.22296841 -0.06715387 0.115231074 -0.022967052 0.08562468 -0.12133246 -0.050761074 0.052858498 0.25224373 -0.06293129 -0.120783016 0.14682262 -0.100157686 0.13090011 -0.3280972 -0.09252625 0.053779855 0.07950811 0.05086913 -0.097672336 0.05852719 0.023879824 0.11338064 0.12385205 -0.1570163 0.2052175 0.052612018 -0.15244335
nỗi 0.22803088 -0.26433226 -0.06717488 0.109776735 0.07327874 -0.050318386 -0.26881963 -0.17391352 -0.30454904 -0.10994536 0.1673444 -0.121833526 0.057609465 0.13103147 0.08595655 0.13814338 0.18522237 0.084447995 0.15213929 -0.27457723 0.082428 -0.4292203 -0.005771367 0.05643396 0.1810294 0.07647579 0.093284555 -0.088885225 -0.21717568 0.032956596 0.02987772 0.0022468534 -0.003595751 -0.42057413 0.28755465 -0.0039856634 -0.094262 0.07526602 -0.21439433 -0.21346948 0.04824185 -0.18408366 0.04662263 -0.08857168 0.01742319 0.21289144 0.14585105 0.14271444 -0.27281022 0.09774082 -0.09910369 -0.010104308 0.06537087 0.0452273 -0.046774775 0.075268336 -0.037884604 0.13490269 0.06588646 -0.3431848 0.1755375 0.04181327 -0.120132916 -0.009925598 -0.033726487 -0.2790493 -0.14447343 0.024391245 0.07690003 0.11844016 -0.037301905 -0.00025362842 -0.22825985 -0.06792452 0.10613465 -0.02927976 0.10102228 -0.12854221 -0.05556317 0.07415829 0.25698113 -0.06590249 -0.11761791 0.14027187 -0.11508959 0.14543305 -0.34421954 -0.08421685 0.059695844 0.0938341 0.048607785 -0.09987954 0.060381662 0.014389605 0.12851481 0.114470616 -0.16455656 0.20775878 0.04413526 -0.14709134
từ 0.22633646 -0.2566946 -0.059680834 0.11372902 0.07164899 -0.04998813 -0.25966978 -0.1739095 -0.29472598 -0.11469449 0.15850449 -0.12131173 0.058900043 0.12822817 0.08503255 0.12869675 0.1869449 0.084165685 0.14458711 -0.26955345 0.084246576 -0.418782 0.0010021322 0.063741125 0.17760897 0.076860376 0.09447344 -0.08702056 -0.22127508 0.021121843 0.013080259 -0.013311019 -0.0023693708 -0.40731937 0.27884898 -8.912074e-05 -0.09534674 0.08838407 -0.20533091 -0.21310723 0.053856466 -0.18104629 0.05823312 -0.08695508 0.006428566 0.20311522 0.13204716 0.13975167 -0.26484945 0.0970058 -0.09608951 -0.01777074 0.056521576 0.04373598 -0.04531345 0.06944669 -0.042315286 0.13359946 0.05900061 -0.32453322 0.1625813 0.034522746 -0.109057754 -0.020424927 -0.025825791 -0.2734161 -0.14278564 0.0344231 0.07082077 0.10936797 -0.056444757 0.003739448 -0.22757638 -0.055564772 0.10483189 -0.017563371 0.08908665 -0.11239685 -0.06909415 0.054402094 0.23332067 -0.049805984 -0.11142105 0.15358482 -0.103439726 0.136472 -0.33523196 -0.08099339 0.053768944 0.085277006 0.041764937 -0.09276799 0.06445767 0.02472278 0.115408644 0.12298587 -0.15482984 0.19542839 0.038042657 -0.14315729
nước 0.23152731 -0.2557033 -0.057299096 0.11202089 0.067846835 -0.04366815 -0.26721084 -0.17142136 -0.29266223 -0.120546944 0.15764199 -0.13231286 0.056059122 0.12431153 0.07856298 0.13461117 0.17316024 0.09280051 0.14652126 -0.27216476 0.076145045 -0.42467993 0.007440511 0.067126274 0.18391182 0.08517161 0.10469279 -0.07514428 -0.2167956 0.022747254 0.008441334 -0.008048575 -0.003121432 -0.4100142 0.2798954 0.0059856772 -0.09368518 0.08360161 -0.20972636 -0.21025869 0.0448978 -0.19035715 0.058317736 -0.08447457 0.0148276985 0.20456679 0.14110887 0.14933269 -0.25221366 0.09204519 -0.094399534 -0.014395566 0.06836529 0.04457537 -0.04633634 0.06675347 -0.045788966 0.12847005 0.072671324 -0.32843414 0.17207368 0.032203995 -0.12563573 -0.022585249 -0.023048965 -0.26731881 -0.14402299 0.023983605 0.072990835 0.11347883 -0.043096427 0.01182462 -0.21780348 -0.061213356 0.10357262 -0.018716495 0.08090697 -0.12118273 -0.057615794 0.045636706 0.24571848 -0.058519855 -0.11541545 0.1423649 -0.1174241 0.12964064 -0.33300805 -0.083809346 0.046596333 0.07798974 0.054774147 -0.110423595 0.062104635 0.023777686 0.11123114 0.12350632 -0.15339717 0.19759165 0.042772423 -0.1367221
hương 0.2267852 -0.25706634 -0.059436835 0.111991964 0.06849557 -0.040610485 -0.25417405 -0.16935082 -0.29352337 -0.11690294 0.16281469 -0.1330303 0.06742494 0.12707806 0.090871535 0.13050957 0.19027245 0.08517404 0.13837223 -0.27205575 0.0719409 -0.42376432 0.006244739 0.07319674 0.1804039 0.08401379 0.10011013 -0.07815565 -0.22123353 0.023823585 0.021454753 -0.018247176 -0.011808255 -0.41639042 0.27625927 -0.007806422 -0.09718653 0.08863226 -0.19939059 -0.21300694 0.054579474 -0.17896515 0.054136913 -0.0849303 0.011444334 0.195917 0.13499753 0.14845994 -0.26322484 0.10024399 -0.089840464 -0.013672541 0.070586324 0.03727081 -0.051448535 0.059160985 -0.036420427 0.12726666 0.060459968 -0.3329482 0.16520682 0.033934154 -0.11530909 -0.01598748 -0.022160362 -0.26489064 -0.15087694 0.030844722 0.073242724 0.112678535 -0.054899223 -0.00028182424 -0.21696608 -0.060572203 0.11252994 -0.015922498 0.08141241 -0.12033779 -0.06410287 0.052646063 0.25152293 -0.05363368 -0.12613274 0.13736054 -0.11357054 0.12913778 -0.32823348 -0.0790511 0.04752265 0.0834635 0.046990693 -0.10136795 0.055341296 0.022793189 0.12114426 0.12612824 -0.15495762 0.20570207 0.041500356 -0.13987514
nói 0.23185596 -0.25953725 -0.06414864 0.11827615 0.06586192 -0.053184517 -0.27269775 -0.18432598 -0.28367898 -0.12940228 0.16551878 -0.13480943 0.055487376 0.12796047 0.09422091 0.13774976 0.19578294 0.07337456 0.1364135 -0.2734016 0.07926925 -0.43544427 -0.0042430516 0.05800647 0.17782645 0.07968516 0.10226799 -0.08593062 -0.20681801 0.016000768 0.02058409 -0.01536943 0.0045476654 -0.41649824 0.27215537 -0.0022989342 -0.08749607 0.08870497 -0.20549701 -0.21020846 0.048738405 -0.20090042 0.04843261 -0.09695704 0.010111534 0.20147774 0.13376002 0.14232957 -0.27086356 0.09153253 -0.090158254 -0.013638685 0.058337357 0.050434995 -0.04282228 0.06444086 -0.029692478 0.13485707 0.070658565 -0.33054692 0.16756037 0.038602848 -0.121976554 -0.018973619 -0.03195112 -0.26818818 -0.13375339 0.03220331 0.07413347 0.11081913 -0.050011124 0.008244265 -0.23125081 -0.06447777 0.111206375 -0.021945313 0.09474865 -0.12419715 -0.056391012 0.057013225 0.25061294 -0.06392349 -0.10867561 0.14664981 -0.10818343 0.1284658 -0.33411372 -0.079123005 0.054013755 0.0803707 0.036193274 -0.11093261 0.060205463 0.01923379 0.12948528 0.10970222 -0.15413935 0.20255636 0.05772692 -0.13482772
trông 0.22367042 -0.24749675 -0.06322684 0.10103045 0.06738318 -0.054645155 -0.2644156 -0.17390949 -0.2879164 -0.11867412 0.16393162 -0.13110475 0.051178943 0.12801138 0.092771396 0.13178918 0.19275434 0.08792014 0.14299934 -0.27150953 0.07062185 -0.41500628 -0.00018853946 0.07038321 0.19012865 0.08454683 0.090809695 -0.08106974 -0.21798868 0.025561973 0.013761702 -0.005386258 -0.0039954064 -0.4127265 0.27696535 0.0012747063 -0.10961061 0.09201329 -0.20538458 -0.21698567 0.042763054 -0.18528458 0.055921137 -0.09676043 -0.0005734633 0.19151731 0.13450278 0.14126787 -0.25913334 0.09225562 -0.09971191 -0.0130151985 0.061751638 0.04775727 -0.0509452 0.06576234 -0.03217895 0.13149622 0.069620416 -0.3270067 0.16582121 0.021965723 -0.12045451 -0.013300281 -0.031107021 -0.26883438 -0.14747435 0.031800956 0.06459012 0.11203514 -0.05241076 0.0055930777 -0.22158411 -0.070840485 0.096148096 -0.03385691 0.0908193 -0.12099427 -0.064139836 0.05262217 0.23888367 -0.056679048 -0.117457986 0.13880914 -0.115596525 0.120692566 -0.32642052 -0.08129612 0.043068055 0.078891225 0.04008614 -0.096084 0.052395243 0.023968011 0.11797249 0.111782864 -0.14418876 0.2018782 0.040136788 -0.1360868
xuân 0.2290374 -0.24797852 -0.050693 0.11904827 0.07255812 -0.045244083 -0.25306255 -0.17250702 -0.29419228 -0.122593835 0.15169883 -0.120386146 0.059309628 0.1315469 0.087262206 0.13175108 0.19223006 0.09267364 0.14271595 -0.27581924 0.0665663 -0.42967325 -0.004983022 0.06429178 0.18235289 0.0695374 0.10281912 -0.07219482 -0.21460079 0.0152141 0.02018041 -0.016885154 -0.008846395 -0.42153442 0.27765426 0.0020947559 -0.106751285 0.09078722 -0.21975623 -0.21919252 0.050684907 -0.18714948 0.05619923 -0.092935674 0.01022428 0.20528731 0.1369663 0.14801042 -0.26276922 0.097259544 -0.096176386 -0.01598516 0.06276028 0.047743194 -0.05170702 0.06844886 -0.033223897 0.12846853 0.07197506 -0.32790738 0.16788456 0.031695783 -0.11853725 -0.01993575 -0.028063403 -0.25993693 -0.1600538 0.033185232 0.06610838 0.1216361 -0.044619057 -0.0026780525 -0.22221176 -0.056651797 0.11084378 -0.020772086 0.08114124 -0.12341907 -0.05239523 0.052861072 0.23674782 -0.057130292 -0.12898473 0.15425876 -0.11722644 0.13655451 -0.33080655 -0.078937076 0.05160336 0.08065937 0.050870284 -0.09635812 0.05308784 0.022533389 0.11369333 0.1247822 -0.14998889 0.20073761 0.0398739 -0.14788334
hồng 0.23567021 -0.25215623 -0.057733927 0.102788076 0.0642409 -0.05472029 -0.2661601 -0.17662136 -0.2983868 -0.1191919 0.15045442 -0.12711625 0.05772594 0.11902116 0.09344259 0.13726148 0.19160399 0.08573605 0.14747617 -0.2705226 0.07921073 -0.42120707 0.0024338623 0.06649613 0.1791341 0.07765172 0.09530347 -0.066304296 -0.22520971 0.030417701 0.02026792 -0.01682534 0.0010884032 -0.40992624 0.2694849 0.0035412891 -0.095276326 0.088913076 -0.19691978 -0.21555036 0.045564007 -0.1911856 0.05266353 -0.08323801 0.015530309 0.20425506 0.12898892 0.15050448 -0.25708768 0.09783388 -0.089862786 -0.022996172 0.06741879 0.036040258 -0.03766398 0.0554049 -0.027692584 0.13967171 0.07477236 -0.33196056 0.17029217 0.028117912 -0.10990426 -0.011352942 -0.035819493 -0.26959345 -0.1507679 0.02868114 0.06542336 0.11391889 -0.047626916 0.00897529 -0.22957493 -0.067185916 0.11753286 -0.015278915 0.078198045 -0.11982452 -0.06133655 0.053366702 0.23560403 -0.056479845 -0.1251861 0.14032218 -0.1214895 0.12745658 -0.3352357 -0.08346593 0.062055673 0.08222989 0.049888093 -0.10638955 0.06185637 0.02804219 0.124475844 0.12608297 -0.14882176 0.20754759 0.046344824 -0.13395718
phải 0.22153138 -0.25475046 -0.06064015 0.10743472 0.058269653 -0.044599667 -0.2685178 -0.17398417 -0.30346224 -0.13183634 0.16874552 -0.13075899 0.052505866 0.12530352 0.09888156 0.13088417 0.18874417 0.094255805 0.15039927 -0.2745365 0.088773474 -0.42369157 0.0053501455 0.06160571 0.18316148 0.07370855 0.10306803 -0.08879511 -0.21830098 0.018550446 0.013840424 -0.00447398 0.006154936 -0.4127513 0.2794819 -0.0008999382 -0.08857294 0.08308083 -0.21033034 -0.22099756 0.048203703 -0.18707918 0.05344726 -0.08065523 0.018138008 0.20370118 0.13450079 0.14268894 -0.26877373 0.09418751 -0.09279752 -0.01257584 0.05986374 0.030404318 -0.046007037 0.064868696 -0.019448873 0.13897103 0.06876532 -0.3388504 0.17381151 0.036087543 -0.12084978 -0.008719649 -0.03717008 -0.2845255 -0.14984663 0.041584015 0.06983553 0.11845834 -0.04238401 0.0052111116 -0.23387748 -0.066512875 0.105568856 -0.024782954 0.08289821 -0.12906769 -0.057514187 0.06585113 0.25284186 -0.06928789 -0.12389153 0.16068263 -0.10857891 0.13567328 -0.34058022 -0.087142766 0.05882864 0.083087556 0.04765922 -0.103294015 0.0637355 0.017576193 0.12077888 0.1217072 -0.16259474 0.20227663 0.04694782 -0.14348762
ta 0.23388389 -0.2503523 -0.062135324 0.11259153 0.058717545 -0.04217922 -0.27101362 -0.17261413 -0.29797924 -0.13375245 0.16777973 -0.12073089 0.05068641 0.12018045 0.09534457 0.13671383 0.18871811 0.088267036 0.14315364 -0.27581742 0.0896473 -0.43019998 0.007776212 0.066373006 0.18519807 0.07975883 0.10374684 -0.08259024 -0.22226253 0.025059588 0.015054065 -0.012859839 0.0032829812 -0.4130079 0.27752286 -0.0104695335 -0.09371012 0.07688489 -0.21371636 -0.21849138 0.041269373 -0.1960701 0.05020943 -0.08526585 0.01929246 0.21198314 0.13996534 0.1507007 -0.26875305 0.08228208 -0.084985465 -0.020475686 0.058787264 0.027378775 -0.04620207 0.053312298 -0.024142243 0.12475497 0.06853672 -0.3324737 0.1779058 0.030100187 -0.11732227 -0.011133657 -0.028543767 -0.28401357 -0.15178823 0.038489547 0.08154508 0.122240104 -0.047916327 0.00041440604 -0.23486143 -0.061926104 0.10005369 -0.021348787 0.07926714 -0.12888515 -0.07095963 0.05779405 0.2526528 -0.06763644 -0.13070065 0.15984473 -0.110326 0.1339368 -0.33769375 -0.09532958 0.052990545 0.07568888 0.048791878 -0.09444513 0.065813154 0.01967644 0.113355845 0.113355085 -0.1518585 0.20474063 0.046188448 -0.1498236
con 0.23166925 -0.25056347 -0.063115455 0.11052344 0.07024033 -0.04697475 -0.26181823 -0.17607859 -0.2995123 -0.12776648 0.15639876 -0.13145308 0.05144102 0.12958884 0.090100646 0.13221864 0.19701338 0.08373932 0.1402451 -0.27247286 0.08349737 -0.42399475 -0.00018289455 0.06278631 0.17387185 0.07775842 0.10029602 -0.07998312 -0.22198336 0.02417433 0.011056701 -0.012146715 0.006261878 -0.4122016 0.2768105 -0.000469887 -0.09340662 0.075331874 -0.20349756 -0.21051155 0.04949992 -0.19269772 0.05664784 -0.08057566 0.020453434 0.20924647 0.1427874 0.1415524 -0.26204303 0.09402705 -0.08190368 -0.014399339 0.06650516 0.03667147 -0.048350263 0.057699736 -0.03181326 0.13265865 0.0657213 -0.33916074 0.17382798 0.032873057 -0.110514395 -0.015460451 -0.03849044 -0.27039936 -0.152746 0.04020983 0.077896826 0.112966664 -0.045318905 0.0038748924 -0.23183542 -0.06936119 0.102982275 -0.032009903 0.07891368 -0.117635466 -0.061935414 0.06148257 0.24975945 -0.06828712 -0.13287082 0.15783812 -0.10920091 0.13142227 -0.3331245 -0.09515811 0.05352592 0.08029454 0.03756123 -0.09347859 0.06102094 0.016933 0.11813038 0.118259035 -0.15240835 0.20165503 0.043276463 -0.14120103
thương 0.22896606 -0.2502153 -0.060839105 0.106730856 0.0653745 -0.042195536 -0.27309844 -0.17150511 -0.2959036 -0.118524276 0.15989043 -0.1208739 0.058811996 0.12896322 0.09915897 0.13882585 0.19826348 0.07977941 0.1480702 -0.27300128 0.078492224 -0.43674245 0.0039277943 0.06455934 0.1766685 0.07722039 0.09075458 -0.0872349 -0.21565843 0.02690452 0.020819085 -0.006270828 -0.0052555935 -0.42520317 0.2722522 -4.6027402e-05 -0.099113934 0.08684375 -0.20961186 -0.22520499 0.041558947 -0.18765186 0.051351946 -0.086413786 0.018866234 0.20278122 0.14292152 0.14003286 -0.26067024 0.0918928 -0.08883671 -0.018154014 0.06372104 0.045119833 -0.05237507 0.06780669 -0.031576455 0.12847662 0.075462766 -0.33954293 0.17178458 0.035413403 -0.120971486 -0.018268911 -0.03293743 -0.28344545 -0.15627967 0.03294043 0.07901716 0.1281457 -0.048577294 0.0051247054 -0.23011115 -0.06698196 0.10485726 -0.030991605 0.08911765 -0.11655795 -0.059522178 0.066681296 0.25621575 -0.067127936 -0.12771916 0.14340316 -0.106956355 0.13679807 -0.33799377 -0.097287096 0.05575636 0.088030525 0.039090093 -0.099504985 0.059832435 0.023153847 0.12013719 0.113589704 -0.1660873 0.20724855 0.045465868 -0.14102256
gió 0.23611067 -0.25842282 -0.055954885 0.107480206 0.072648 -0.043309968 -0.26237702 -0.17255975 -0.28606203 -0.12141254 0.15628307 -0.12963203 0.05062905 0.11527544 0.09381923 0.1365071 0.19187927 0.09778552 0.12990949 -0.27124813 0.07495591 -0.4262803 0.003471348 0.05844611 0.17697911 0.081895486 0.10715786 -0.06489361 -0.21235815 0.023981528 0.01134569 -0.027819542 -0.01468476 -0.4070379 0.2728344 -0.006761581 -0.09370324 0.077074096 -0.21193178 -0.21449417 0.04372373 -0.17384261 0.046055425 -0.09038373 -0.0017440766 0.20357227 0.13568714 0.14170022 -0.26105154 0.094989896 -0.09802988 -0.010783364 0.066311315 0.04721978 -0.041352447 0.06600713 -0.03441461 0.14074916 0.07612644 -0.33312774 0.17660788 0.02429959 -0.11641124 -0.014997465 -0.03255424 -0.25113404 -0.15109053 0.024401627 0.06673803 0.11187275 -0.05332665 0.002628594 -0.22818716 -0.06333552 0.11797 -0.025298636 0.08150649 -0.12971935 -0.05879758 0.05522602 0.24451195 -0.047851436 -0.121173166 0.1389289 -0.113213316 0.1281896 -0.33265322 -0.07243388 0.053352248 0.07970448 0.047402367 -0.10343435 0.06265852 0.027820794 0.111041725 0.11937411 -0.15848944 0.19886942 0.03647087 -0.13683903
thế 0.22308345 -0.2553505 -0.07569767 0.10684864 0.06275628 -0.047580767 -0.26720655 -0.19111691 -0.31958058 -0.13623728 0.17518842 -0.122655466 0.051312 0.1261922 0.09945208 0.14842778 0.20954517 0.083894186 0.16222423 -0.27066508 0.10096465 -0.43412346 0.005588815 0.05457851 0.17486358 0.07146663 0.101125576 -0.093094 -0.22463953 0.027920507 0.015786575 -0.0023772034 0.015086961 -0.41412377 0.28245455 -0.0070123523 -0.09085913 0.07290558 -0.19992691 -0.23068264 0.04127045 -0.19233027 0.053509448 -0.07403463 0.03242286 0.20903267 0.14783616 0.15747431 -0.27105257 0.08699811 -0.078864746 -0.015458293 0.06047098 0.022538371 -0.029358769 0.06561737 -0.012127622 0.1358983 0.06733108 -0.3633753 0.16892432 0.04557004 -0.11165242 -0.009912194 -0.042191647 -0.30024266 -0.14787212 0.058248967 0.08288135 0.11639414 -0.04631864 0.004715931 -0.2470981 -0.06295344 0.105914705 -0.026879262 0.08384397 -0.12086227 -0.067787565 0.08323207 0.263929 -0.070215255 -0.14124979 0.16132596 -0.10573484 0.13928379 -0.3628844 -0.09456845 0.06533204 0.06842131 0.036607042 -0.102852434 0.073985115 0.021371422 0.12155364 0.11515034 -0.15920159 0.21383658 0.05158674 -0.15513681
tiếng 0.23431008 -0.25891662 -0.051545724 0.11139581 0.05990401 -0.041295152 -0.27023718 -0.1781746 -0.28026834 -0.12707321 0.15563953 -0.12619723 0.060222123 0.12085696 0.09128331 0.12667768 0.18815397 0.08537774 0.14611258 -0.27316517 0.07265327 -0.42314443 0.0010957877 0.07373549 0.17394406 0.086739846 0.10326549 -0.08567953 -0.21070968 0.02139449 0.018787 -0.022507746 0.0073949723 -0.40518448 0.28301752 -0.0047723167 -0.09673271 0.08005894 -0.20551112 -0.2038785 0.045664508 -0.17963596 0.05869426 -0.09459543 0.0004286878 0.19522053 0.12737842 0.1481462 -0.26757848 0.08429907 -0.09158499 -0.008393574 0.06421736 0.038767222 -0.0474108 0.066767395 -0.034087118 0.13466637 0.071323715 -0.33150598 0.17143692 0.02486302 -0.11369944 -0.02969533 -0.034948163 -0.27378115 -0.15099083 0.022439174 0.06458734 0.11835175 -0.059719454 0.0019787487 -0.21760175 -0.058110796 0.10654443 -0.025102425 0.08459867 -0.12391004 -0.058788978 0.05908144 0.24931124 -0.050117172 -0.1135482 0.14644359 -0.122976035 0.13297614 -0.3269444 -0.08606916 0.04812057 0.08309219 0.044117477 -0.09937822 0.060581353 0.023510998 0.124478586 0.12139183 -0.14400247 0.19721955 0.04138479 -0.13839263
chưa 0.23481907 -0.26277938 -0.05298938 0.106752254 0.06304164 -0.044512384 -0.26056316 -0.17427613 -0.28932607 -0.12642409 0.16895406 -0.12614869 0.056598943 0.11867191 0.09075322 0.13916309 0.18797001 0.09020755 0.14818949 -0.27055252 0.083349064 -0.4219032 0.001284087 0.05456445 0.18221365 0.08283117 0.10441978 -0.07195992 -0.215366 0.02025882 0.015106517 -0.01967373 0.0004978579 -0.41988719 0.28011906 -0.0007220274 -0.096563324 0.083674155 -0.19657326 -0.20873855 0.051051024 -0.19052409 0.06027794 -0.08836408 0.012213071 0.2143628 0.13191253 0.15145388 -0.26710227 0.087664194 -0.089341894 -0.010817393 0.06997425 0.032976255 -0.045567848 0.06588759 -0.03231484 0.13420136 0.0596526 -0.34261423 0.17587452 0.032784577 -0.11853702 -0.0191033 -0.037991393 -0.2682112 -0.15693958 0.033566486 0.07422717 0.11397885 -0.047191627 0.0012354532 -0.23173876 -0.06132712 0.11206745 -0.014735231 0.076066084 -0.12683217 -0.05416781 0.060262136 0.24820735 -0.05985358 -0.12564667 0.14433274 -0.11684186 0.12878264 -0.32864913 -0.091942355 0.06266445 0.08397918 0.04464605 -0.10924347 0.06087905 0.025989152 0.11185476 0.12389824 -0.14779891 0.20690899 0.042098425 -0.14797239
đây 0.22832654 -0.25820848 -0.064441234 0.11268706 0.061587222 -0.045189906 -0.2828492 -0.18499736 -0.30637732 -0.1341659 0.16828404 -0.13339487 0.06473722 0.13042066 0.09980559 0.13436049 0.19537947 0.085457414 0.15523301 -0.27527124 0.08384592 -0.44290262 0.008451928 0.060427442 0.18691695 0.085526705 0.097630806 -0.08626119 -0.23673831 0.021501796 0.022222139 -0.011920715 -0.00083658105 -0.4221237 0.2832949 -0.007977527 -0.10199532 0.08525271 -0.21649523 -0.2283282 0.03885798 -0.19866052 0.06403707 -0.09224604 0.011517121 0.21600725 0.13729124 0.15651898 -0.272139 0.10109828 -0.08667763 -0.019123742 0.06814763 0.029039519 -0.04934792 0.057797857 -0.031533558 0.13690618 0.07124491 -0.35391387 0.1833414 0.03530292 -0.113671854 -0.013519906 -0.03199557 -0.28321457 -0.16326593 0.035911735 0.08236868 0.11616464 -0.044222925 0.009045481 -0.23754127 -0.074207224 0.11312025 -0.033845756 0.09040552 -0.12164104 -0.07522728 0.05454998 0.26286867 -0.07266155 -0.12870239 0.16016701 -0.1167191 0.13823427 -0.35479358 -0.092753865 0.06482692 0.08066363 0.052883856 -0.09960273 0.067682706 0.026577974 0.11160367 0.122952655 -0.15987642 0.20535673 0.041920826 -0.1487149
mấy 0.22474803 -0.25189444 -0.061263945 0.11850248 0.061136413 -0.049825553 -0.26426023 -0.16947804 -0.2896045 -0.11809043 0.16663285 -0.11810464 0.058470413 0.12143436 0.09485511 0.13665341 0.1929488 0.09124527 0.13772526 -0.266222 0.07963874 -0.42301178 0.0037953425 0.07265475 0.17679586 0.08467757 0.0929856 -0.08017773 -0.21099263 0.017960528 0.0144743025 -0.01421972 -0.008872099 -0.40628773 0.27671972 -0.002761915 -0.10099215 0.084322505 -0.21619192 -0.20522442 0.05219066 -0.19046468 0.05427886 -0.091064796 0.019490061 0.20686053 0.13581176 0.14519387 -0.26376116 0.08296529 -0.09492197 -0.012526331 0.057078265 0.03463676 -0.044029713 0.0640169 -0.033172943 0.13761638 0.060176615 -0.33580875 0.17585813 0.024549276 -0.11692462 -0.01979956 -0.024112243 -0.2712073 -0.15084669 0.032672882 0.065885015 0.1179555 -0.054248158 0.012946122 -0.23268574 -0.06345288 0.107725196 -0.024540082 0.083095595 -0.12982287 -0.063866645 0.043342557 0.24308746 -0.052651506 -0.122382805 0.14818637 -0.10617925 0.13366504 -0.3335693 -0.088994965 0.05103807 0.076500736 0.042188384 -0.10245872 0.05683444 0.025900315 0.114123285 0.12375177 -0.14913066 0.19863363 0.04500288 -0.14363077
tơ 0.22726986 -0.25677055 -0.052358687 0.11746448 0.060418323 -0.0534458 -0.27243033 -0.17732081 -0.29612684 -0.12387399 0.16119403 -0.13134864 0.052770965 0.13242324 0.093499675 0.13123624 0.19722791 0.09937648 0.14578116 -0.2803931 0.0842234 -0.42740306 0.0020286422 0.06435827 0.18473452 0.08700327 0.10470847 -0.07889391 -0.2132173 0.023825081 0.012627569 -0.016679557 -0.01107513 -0.41529644 0.27995756 0.0025943364 -0.0954721 0.08179021 -0.21612258 -0.21208937 0.053462565 -0.19212033 0.057766505 -0.09381861 0.01356894 0.21024542 0.1367898 0.14234582 -0.2602034 0.090158336 -0.09350926 -0.016707025 0.06840985 0.03591976 -0.053083137 0.059777725 -0.040885475 0.142753 0.0637194 -0.3367859 0.16490482 0.022640934 -0.12316148 -0.024610857 -0.03432839 -0.28060246 -0.15777771 0.043740492 0.07141888 0.10979414 -0.049318444 -0.0037695807 -0.22417217 -0.07255279 0.120675206 -0.010910993 0.08387531 -0.12041642 -0.06031731 0.04810461 0.24119337 -0.053136986 -0.12156033 0.14579657 -0.1121302 0.12991199 -0.3362063 -0.080986775 0.05415405 0.08900562 0.05461139 -0.10842591 0.05345024 0.022939146 0.1194681 0.12776181 -0.16065711 0.20553502 0.05220107 -0.15040821
ở 0.22327286 -0.25866756 -0.055753328 0.10388119 0.06427175 -0.04141177 -0.27300325 -0.17185248 -0.2999317 -0.1199675 0.16793227 -0.1255024 0.05750246 0.1312575 0.08716448 0.13062267 0.18851443 0.09411088 0.13953856 -0.28197238 0.08869165 -0.42337617 -0.0014293905 0.06829859 0.18506554 0.080175765 0.10054121 -0.077911 -0.22029957 0.027490536 0.012115972 -0.014037962 -0.003893117 -0.41308275 0.2803593 -0.008351823 -0.100693844 0.08040172 -0.20516594 -0.2097863 0.051746134 -0.19398688 0.049663816 -0.086444184 0.0077517857 0.21353106 0.13445427 0.14113718 -0.2680209 0.09053357 -0.09059633 -0.00929379 0.06787108 0.03464076 -0.035419762 0.05887514 -0.03555063 0.13413817 0.07115144 -0.33079347 0.17392996 0.041212637 -0.117541686 -0.021055872 -0.03712846 -0.28045288 -0.15875404 0.0355118 0.06955546 0.11829518 -0.048251823 0.0034122798 -0.23021668 -0.059743267 0.10363405 -0.0211946 0.08545888 -0.1257987 -0.06475191 0.0611281 0.24762277 -0.06479417 -0.12651956 0.15617555 -0.121937275 0.13860431 -0.33422548 -0.08708568 0.0625633 0.08235386 0.052855536 -0.094625235 0.06760585 0.022088414 0.11837207 0.1104372 -0.1635231 0.19755073 0.043499354 -0.14026706
năm 0.23245129 -0.24710566 -0.06207778 0.112343274 0.056527477 -0.040976603 -0.26396298 -0.17434244 -0.30457976 -0.12329011 0.15733765 -0.1183443 0.05561509 0.1332378 0.08376428 0.13694198 0.18437034 0.08847571 0.1416062 -0.27701908 0.075259715 -0.4325972 0.0115034925 0.06871383 0.18019557 0.07375986 0.09235315 -0.079743996 -0.2233413 0.020879444 0.021712473 -0.019527348 -0.005606322 -0.41959256 0.29087672 0.0050569675 -0.093510844 0.08770162 -0.21700697 -0.21430653 0.048583277 -0.18850003 0.06169172 -0.09995688 0.014610703 0.20483068 0.13704921 0.15054004 -0.26170802 0.09517342 -0.09677597 -0.017438494 0.07213632 0.031520877 -0.04564381 0.056249116 -0.036242645 0.13817798 0.062390707 -0.3378089 0.16944028 0.02473699 -0.110373616 -0.0239338 -0.025872163 -0.27474195 -0.16333443 0.027296517 0.08105992 0.115317605 -0.041914567 0.012748841 -0.23176175 -0.06454954 0.112210795 -0.021300003 0.08522451 -0.13208863 -0.060793687 0.05335659 0.24914677 -0.06770092 -0.12117311 0.15237875 -0.1082136 0.13307327 -0.3308671 -0.08702933 0.05813575 0.08287131 0.049661014 -0.09506687 0.068354666 0.013860969 0.107924074 0.11405849 -0.15121698 0.19789994 0.041310523 -0.15029779
với 0.22917196 -0.25592744 -0.06398763 0.11046613 0.061214842 -0.049822558 -0.26391035 -0.18121886 -0.29776222 -0.11760814 0.16790634 -0.12176602 0.059617087 0.124879785 0.08664807 0.13437155 0.19124858 0.09056983 0.13615832 -0.27560595 0.079932146 -0.42375335 -0.0038623393 0.064406864 0.18393089 0.07791748 0.10013402 -0.08319032 -0.22413594 0.023163047 0.02373486 -0.012125894 -0.008982244 -0.4101455 0.27958757 -0.0059981756 -0.09545797 0.076764815 -0.20776628 -0.2177474 0.052057847 -0.18548247 0.049178302 -0.08886851 0.015072954 0.2076631 0.141059 0.14367156 -0.26628295 0.09213501 -0.08862289 -0.022207804 0.06277943 0.041620787 -0.04069956 0.06615741 -0.030968107 0.13222629 0.06506394 -0.33337185 0.16420102 0.029432148 -0.116992295 -0.021656768 -0.031077765 -0.2809652 -0.14662197 0.03872191 0.06422561 0.12014789 -0.049291175 0.00438834 -0.23159689 -0.06887747 0.10575069 -0.022977222 0.0846018 -0.11707039 -0.06851089 0.053398393 0.2386708 -0.06174725 -0.12628889 0.14732495 -0.105747215 0.13242136 -0.33469024 -0.08386881 0.054877035 0.07932389 0.0523772 -0.096079215 0.06294411 0.016971787 0.1148465 0.11429915 -0.15448242 0.19968802 0.04703574 -0.14388368
nghĩ 0.23053193 -0.2568082 -0.059446856 0.1050948 0.065560505 -0.03779087 -0.27083683 -0.17623407 -0.29834673 -0.114638604 0.16474728 -0.121796526 0.060769673 0.12943485 0.09093482 0.13215908 0.19758016 0.0876074 0.14439204 -0.26978937 0.0831961 -0.43000978 -0.003188879 0.06135357 0.1782977 0.07135904 0.093922086 -0.08668009 -0.22011957 0.024254946 0.022207899 7.3979945e-06 0.0021660228 -0.42134994 0.2772451 -0.008132954 -0.09033112 0.074356 -0.21130967 -0.2198056 0.051035367 -0.18132225 0.04752163 -0.0932283 0.008690397 0.19840008 0.14453442 0.14993005 -0.26370764 0.09717475 -0.09445881 -0.008804143 0.06776784 0.039217275 -0.04453278 0.06870404 -0.031407636 0.13291337 0.068130955 -0.34008798 0.17097469 0.033282183 -0.11976305 -0.0056255884 -0.038169045 -0.2783481 -0.15481384 0.03198688 0.07559054 0.116951294 -0.04995409 0.0049779313 -0.22520569 -0.070939586 0.10787685 -0.031655524 0.095250465 -0.118293986 -0.05506128 0.07253616 0.24570766 -0.06797085 -0.12433032 0.14195257 -0.115164235 0.13743939 -0.33809686 -0.092440456 0.06274503 0.08722533 0.040824346 -0.09614821 0.065279424 0.021045474 0.12805156 0.120276906 -0.16324638 0.19985443 0.043896087 -0.14296237
chút 0.22932875 -0.25480992 -0.057852186 0.113545075 0.066857904 -0.049301185 -0.26758587 -0.17761093 -0.29354048 -0.12503807 0.14935146 -0.12569936 0.05674069 0.11541364 0.09392608 0.13674635 0.18989664 0.08699099 0.13610707 -0.27018502 0.080097094 -0.4296141 -0.008007664 0.06318287 0.17200464 0.08550455 0.099308975 -0.076159276 -0.21754734 0.020159746 0.017208483 -0.0071272845 -0.0063867215 -0.40915704 0.27163804 0.0009925949 -0.09067701 0.08104594 -0.20708874 -0.20581354 0.043456238 -0.18577893 0.05008157 -0.08527299 0.015623348 0.20731328 0.13928257 0.14951767 -0.25953147 0.08152657 -0.083892226 -0.0118971625 0.06222752 0.03463441 -0.047144275 0.065765955 -0.036916833 0.13038139 0.076422945 -0.32445586 0.17567278 0.030403612 -0.107503064 -0.015042295 -0.0340684 -0.27793723 -0.1478883 0.040565062 0.066478804 0.1208335 -0.05042378 0.00065502094 -0.21957521 -0.065505 0.111020975 -0.013793978 0.08575188 -0.11039233 -0.058829658 0.05377642 0.24249855 -0.06366267 -0.1217532 0.14742114 -0.107640535 0.13338631 -0.34020647 -0.09431508 0.05547503 0.0892566 0.045486078 -0.09815441 0.056064267 0.012090264 0.12293686 0.13262428 -0.15838143 0.19812815 0.04898921 -0.14254983
xưa 0.23359437 -0.25990626 -0.0600259 0.11866507 0.060154464 -0.04580464 -0.25764245 -0.1702339 -0.30073342 -0.12891749 0.16431665 -0.12013007 0.056699622 0.13038239 0.08254658 0.13521832 0.19286923 0.084703885 0.14268959 -0.27795166 0.075782195 -0.43218353 -0.0036935802 0.06010036 0.17748484 0.07579872 0.099259794 -0.07666827 -0.21562247 0.018977327 0.022868479 -0.00717622 -0.0123420125 -0.41124263 0.27866182 -0.009330071 -0.099796355 0.08050828 -0.21324034 -0.21233985 0.051460955 -0.18185037 0.0605223 -0.09263967 0.009769526 0.20585184 0.1413009 0.14518455 -0.25714466 0.09010295 -0.08554884 -0.018387986 0.06994407 0.02978771 -0.04188573 0.06613716 -0.031887885 0.12698385 0.06259436 -0.3327062 0.17992339 0.025746604 -0.11254335 -0.019806584 -0.029402656 -0.28308594 -0.15077634 0.04066291 0.06845289 0.11465597 -0.05116385 0.008244415 -0.22566071 -0.06653485 0.11257036 -0.025785062 0.077698305 -0.121874414 -0.06741718 0.052888524 0.24912079 -0.053343117 -0.12483414 0.14686213 -0.10661935 0.13286047 -0.33011627 -0.08801756 0.053398024 0.08339733 0.051088057 -0.11018162 0.06610005 0.02146681 0.12206094 0.12003763 -0.1599435 0.199501 0.040181924 -0.1467216
nhau 0.23364769 -0.26386887 -0.05898354 0.10888802 0.06133143 -0.045181654 -0.26919228 -0.17778203 -0.30532175 -0.123841025 0.1678329 -0.12851392 0.052081227 0.12956466 0.095466465 0.138927 0.18791029 0.09172162 0.14982948 -0.2779279 0.074084006 -0.43277034 0.0052101095 0.060212564 0.18743941 0.08229153 0.09758172 -0.08655128 -0.22033001 0.027613955 0.014510817 -0.019826852 -0.007953194 -0.4236538 0.28367367 -0.0046968507 -0.101323254 0.09239729 -0.21662952 -0.21805203 0.052069332 -0.1974783 0.055691063 -0.09004498 0.009182824 0.2141374 0.13683681 0.1498996 -0.2714278 0.09852793 -0.09632877 -0.02068768 0.06571999 0.044309918 -0.05557552 0.07431779 -0.037396405 0.13880673 0.06832782 -0.34306154 0.17247112 0.022743292 -0.11680031 -0.020208525 -0.024952186 -0.2880218 -0.15855923 0.026202474 0.071395904 0.116110526 -0.05187871 0.0075570396 -0.23492044 -0.0682427 0.103908986 -0.030792272 0.08596586 -0.12791196 -0.06916913 0.049642075 0.24341583 -0.063818775 -0.12819664 0.15716699 -0.10981074 0.1352039 -0.3370283 -0.08852246 0.048802964 0.08442974 0.04558257 -0.10014323 0.05955915 0.02697075 0.11295367 0.12442693 -0.1485202 0.20979957 0.042255893 -0.14567408
gì 0.22774395 -0.25803912 -0.05558826 0.10831657 0.06516723 -0.03977697 -0.2642452 -0.17496878 -0.30420148 -0.12774603 0.1616367 -0.1170296 0.06373775 0.12980424 0.08980565 0.13288872 0.18775119 0.08795551 0.14831446 -0.26894918 0.09528008 -0.4293726 -0.00042331222 0.054596335 0.18795131 0.071071126 0.09232763 -0.07298689 -0.22956303 0.028196802 0.018998537 -0.0022663528 -0.0015278419 -0.41515604 0.27571362 -0.0030129268 -0.09508768 0.07676957 -0.20983802 -0.21123254 0.040397312 -0.1912876 0.05068771 -0.08720575 0.01694918 0.20775567 0.14854205 0.14227103 -0.26133677 0.096549384 -0.0912041 -0.011512321 0.06539759 0.034682803 -0.03612329 0.0556184 -0.028423702 0.14084205 0.0757809 -0.34440178 0.17353262 0.026627364 -0.11523774 -0.007334574 -0.039111767 -0.2861058 -0.15502681 0.04584142 0.077898666 0.123445734 -0.039295066 0.006191471 -0.23985292 -0.06891251 0.1029789 -0.0233574 0.08378231 -0.12366474 -0.06494407 0.057511736 0.25409928 -0.07178105 -0.1295666 0.15325272 -0.10917063 0.13937052 -0.3477405 -0.08998822 0.057392024 0.08355766 0.036210433 -0.104320854 0.066585034 0.0153864445 0.120503694 0.11975391 -0.1635364 0.20562491 0.043131348 -0.15476607
đi 0.23707281 -0.2573537 -0.05305892 0.12141451 0.07039727 -0.04906076 -0.26937112 -0.17515804 -0.30354315 -0.12618627 0.16408785 -0.13012485 0.061957058 0.13592106 0.09196015 0.13772224 0.20009764 0.08880902 0.14579146 -0.2764348 0.07459047 -0.43220812 0.0071913907 0.06346441 0.18137766 0.071688615 0.10289949 -0.08225696 -0.22053888 0.023628926 0.007517583 -0.01122828 0.0016731011 -0.42677584 0.2790614 -0.0029179342 -0.10743637 0.07743277 -0.22036234 -0.21929221 0.04852054 -0.19563209 0.061025828 -0.09125704 0.015570922 0.20404191 0.13321063 0.14671223 -0.27008045 0.10225906 -0.09455969 -0.010194807 0.06839095 0.033145905 -0.04194885 0.05767177 -0.035568777 0.13133967 0.067640066 -0.3353372 0.16991106 0.03512903 -0.12431426 -0.015512703 -0.03338531 -0.2799145 -0.15715295 0.035578385 0.08044697 0.12208808 -0.050543487 0.008285236 -0.23308414 -0.06835015 0.10882576 -0.031340618 0.076226845 -0.1258689 -0.06687942 0.055687137 0.24998933 -0.059436485 -0.13633874 0.1507955 -0.110407874 0.13423085 -0.34520847 -0.0937432 0.05208357 0.08150061 0.046669375 -0.10328252 0.06936227 0.020286774 0.1152929 0.12359365 -0.15674974 0.2070935 0.04874712 -0.14350222
bên 0.22985859 -0.24861635 -0.05264131 0.10599383 0.06345466 -0.048648003 -0.2698142 -0.17408442 -0.2925767 -0.12518574 0.16351306 -0.13383937 0.056082334 0.12761861 0.09373812 0.12786423 0.19177112 0.09286647 0.13854116 -0.26009634 0.06987871 -0.42478445 0.0001243669 0.073830165 0.16933098 0.076518044 0.10039045 -0.08563603 -0.21160084 0.022265255 0.018950714 -0.019537756 0.0012309875 -0.41186607 0.27758774 -0.0051490827 -0.092358075 0.08671288 -0.2079865 -0.21489516 0.052417845 -0.18361136 0.049431928 -0.09612429 0.006871793 0.19623026 0.134933 0.13613005 -0.259573 0.08093181 -0.08231455 -0.01502476 0.07031396 0.03843148 -0.04723261 0.0702093 -0.032535646 0.13481352 0.06383106 -0.32684463 0.17198147 0.024416568 -0.11243444 -0.019143302 -0.026175192 -0.26129612 -0.15057178 0.026412016 0.07663387 0.10600966 -0.05392125 0.009589428 -0.2293454 -0.070326574 0.114221215 -0.018132422 0.089451104 -0.123152085 -0.0507931 0.046658862 0.2516811 -0.051168263 -0.11960327 0.15035528 -0.10168564 0.13383745 -0.32913542 -0.079775654 0.05177696 0.07129257 0.056699615 -0.10134888 0.05605882 0.02094332 0.11649144 0.12540615 -0.1554242 0.19554766 0.056302838 -0.14684981
giờ 0.23444194 -0.25363952 -0.08125566 0.11084544 0.07121081 -0.042315055 -0.2836677 -0.18209675 -0.2949693 -0.13779709 0.17421018 -0.11330518 0.06803229 0.123370685 0.08602164 0.14223148 0.19221523 0.07356399 0.14291607 -0.27840602 0.07855674 -0.4245697 0.01510233 0.06528046 0.20376885 0.0885072 0.11075971 -0.08228361 -0.23130669 0.019159088 0.011814807 0.002608726 -0.010766632 -0.41814783 0.2884586 -0.008889407 -0.11356882 0.07325014 -0.22582617 -0.21445608 0.039590046 -0.20709383 0.06380595 -0.08006719 0.004649194 0.19617306 0.14373057 0.14012414 -0.2675707 0.10463223 -0.10615195 -0.0069773607 0.070794255 0.029358929 -0.031523146 0.070264824 -0.049162596 0.14786369 0.0591368 -0.33709213 0.17888843 0.044159327 -0.11716044 -0.029906483 -0.026254136 -0.27754092 -0.16472545 0.04177033 0.069392994 0.110721335 -0.04566686 -0.004335699 -0.24972619 -0.07787696 0.097854815 -0.027254464 0.090102196 -0.13094784 -0.075230435 0.043393575 0.26233292 -0.08193631 -0.12144801 0.15662815 -0.11833413 0.116145626 -0.3460727 -0.085043415 0.05954288 0.07827534 0.03875091 -0.11624626 0.045965213 0.022110987 0.1012016 0.11728109 -0.15228239 0.21506542 0.03818979 -0.14080092
